{"learner":{"attributes":{"best_iteration":"626","best_ntree_limit":"627","scikit_learn":"{\"n_estimators\": 627, \"objective\": \"reg:squarederror\", \"max_depth\": 6, \"learning_rate\": 0.05660429498352957, \"verbosity\": null, \"booster\": null, \"tree_method\": null, \"gamma\": 0.0007775878663839263, \"min_child_weight\": null, \"max_delta_step\": null, \"subsample\": 0.9477581126623729, \"colsample_bytree\": 0.7438579854258847, \"colsample_bylevel\": null, \"colsample_bynode\": null, \"reg_alpha\": 0.03056510643451671, \"reg_lambda\": 4.040396184552521, \"scale_pos_weight\": null, \"base_score\": null, \"missing\": NaN, \"num_parallel_tree\": null, \"random_state\": 42, \"n_jobs\": null, \"monotone_constraints\": null, \"interaction_constraints\": null, \"importance_type\": null, \"gpu_id\": null, \"validate_parameters\": null, \"predictor\": null, \"enable_categorical\": false, \"_estimator_type\": \"regressor\"}"},"feature_names":["GW","minutes","goals_scored","assists","clean_sheets","saves","penalties_saved","penalties_missed","bonus","goals_conceded","yellow_cards","red_cards","own_goals","expected_goals","expected_assists","expected_goal_involvements","expected_goals_conceded","team_standing","sched_strength"],"feature_types":["int","float","float","float","float","float","float","float","float","float","float","float","float","float","float","float","float","float","float"],"gradient_booster":{"model":{"gbtree_model_param":{"num_trees":"627","size_leaf_vector":"0"},"tree_info":[0,0,0,0,0,0,0,0,0,0,0,0,0,0,0,0,0,0,0,0,0,0,0,0,0,0,0,0,0,0,0,0,0,0,0,0,0,0,0,0,0,0,0,0,0,0,0,0,0,0,0,0,0,0,0,0,0,0,0,0,0,0,0,0,0,0,0,0,0,0,0,0,0,0,0,0,0,0,0,0,0,0,0,0,0,0,0,0,0,0,0,0,0,0,0,0,0,0,0,0,0,0,0,0,0,0,0,0,0,0,0,0,0,0,0,0,0,0,0,0,0,0,0,0,0,0,0,0,0,0,0,0,0,0,0,0,0,0,0,0,0,0,0,0,0,0,0,0,0,0,0,0,0,0,0,0,0,0,0,0,0,0,0,0,0,0,0,0,0,0,0,0,0,0,0,0,0,0,0,0,0,0,0,0,0,0,0,0,0,0,0,0,0,0,0,0,0,0,0,0,0,0,0,0,0,0,0,0,0,0,0,0,0,0,0,0,0,0,0,0,0,0,0,0,0,0,0,0,0,0,0,0,0,0,0,0,0,0,0,0,0,0,0,0,0,0,0,0,0,0,0,0,0,0,0,0,0,0,0,0,0,0,0,0,0,0,0,0,0,0,0,0,0,0,0,0,0,0,0,0,0,0,0,0,0,0,0,0,0,0,0,0,0,0,0,0,0,0,0,0,0,0,0,0,0,0,0,0,0,0,0,0,0,0,0,0,0,0,0,0,0,0,0,0,0,0,0,0,0,0,0,0,0,0,0,0,0,0,0,0,0,0,0,0,0,0,0,0,0,0,0,0,0,0,0,0,0,0,0,0,0,0,0,0,0,0,0,0,0,0,0,0,0,0,0,0,0,0,0,0,0,0,0,0,0,0,0,0,0,0,0,0,0,0,0,0,0,0,0,0,0,0,0,0,0,0,0,0,0,0,0,0,0,0,0,0,0,0,0,0,0,0,0,0,0,0,0,0,0,0,0,0,0,0,0,0,0,0,0,0,0,0,0,0,0,0,0,0,0,0,0,0,0,0,0,0,0,0,0,0,0,0,0,0,0,0,0,0,0,0,0,0,0,0,0,0,0,0,0,0,0,0,0,0,0,0,0,0,0,0,0,0,0,0,0,0,0,0,0,0,0,0,0,0,0,0,0,0,0,0,0,0,0,0,0,0,0,0,0,0,0,0,0,0,0,0,0,0,0,0,0,0,0,0,0,0,0,0,0,0,0,0,0,0,0,0,0,0,0,0,0,0,0,0,0,0,0,0,0,0,0,0,0,0,0,0,0,0,0,0,0,0,0,0,0,0,0,0,0,0,0,0,0,0,0,0,0,0,0,0,0,0,0,0,0,0,0,0,0,0,0,0,0,0,0,0,0,0,0,0,0,0,0,0,0,0,0,0,0,0,0,0,0,0,0,0,0],"trees":[{"base_weights":[2.6968727E0,1.6379559E0,2.828515E0,1.811338E0,-1.846639E-1,3.1099346E0,2.3896642E0,1.9719188E0,7.4049294E-2,-2.4494252E-1,5.3455103E-2,3.1998434E0,7.3972994E-1,2.4344947E0,2.0348519E-1,-1.3289993E-1,2.067385E0,3.3121106E-1,-1.2057053E-1,1.34545E0,3.2680116E0,-7.958002E-2,1.2318157E0,2.468033E0,2.087148E-1,1.3775686E-2,-1.5189981E-1,1.6284859E0,-1.6049194E-1,2.84656E-1,3.290063E0,-2.4494252E-1,2.4193235E-1,2.492215E0,1.2738153E-1,3.26044E-1,-9.313452E-2,2.5223267E0,3.389158E-1],"categories":[],"categories_nodes":[],"categories_segments":[],"categories_sizes":[],"default_left":[true,true,true,true,true,true,true,true,true,false,false,true,true,true,false,false,false,false,true,true,true,true,false,true,true,false,false,false,false,false,false,false,false,true,false,false,false,false,false],"id":0,"left_children":[1,3,5,7,9,11,13,15,17,-1,-1,19,21,23,-1,-1,-1,-1,25,27,29,31,-1,33,35,-1,-1,-1,-1,-1,-1,-1,-1,37,-1,-1,-1,-1,-1],"loss_changes":[4.7224854E1,2.1006546E1,2.1186523E1,1.5260361E1,1.8851662E-1,4.1468994E1,1.556311E1,1.1626205E1,6.202494E-1,0E0,0E0,1.1173096E1,6.091967E0,1.0978027E1,0E0,0E0,0E0,0E0,4.65182E-2,7.511614E0,1.0516846E1,7.2016644E-1,0E0,8.431641E0,3.7915018E-1,0E0,0E0,0E0,0E0,0E0,0E0,0E0,0E0,7.548706E0,0E0,0E0,0E0,0E0,0E0],"parents":[2147483647,0,0,1,1,2,2,3,3,4,4,5,5,6,6,7,7,8,8,11,11,12,12,13,13,18,18,19,19,20,20,21,21,23,23,24,24,33,33],"right_children":[2,4,6,8,10,12,14,16,18,-1,-1,20,22,24,-1,-1,-1,-1,26,28,30,32,-1,34,36,-1,-1,-1,-1,-1,-1,-1,-1,38,-1,-1,-1,-1,-1],"split_conditions":[8.175E1,1.9166667E0,1.1700001E1,1.46E1,7.65E1,1.5125E1,1E-2,7.75E-1,6.586667E-1,-1.38647985E-2,3.0257886E-3,1.0714285E0,9.4916666E-1,3.65E1,1.1518136E-2,-7.522707E-3,1.1702287E-1,1.8747969E-2,1.51E1,3.6E0,8.3333336E-2,3.875E0,6.972606E-2,2.3555E0,3.1E0,7.79763E-4,-8.598182E-3,9.21793E-2,-9.084534E-3,1.6112752E-2,1.8623169E-1,-1.38647985E-2,1.369441E-2,4.7E0,7.210342E-3,1.845549E-2,-5.2718143E-3,1.4277452E-1,1.918409E-2],"split_indices":[1,9,17,18,1,18,13,5,16,0,0,5,16,0,0,0,0,0,18,17,9,5,0,16,5,0,0,0,0,0,0,0,0,5,0,0,0,0,0],"split_type":[0,0,0,0,0,0,0,0,0,0,0,0,0,0,0,0,0,0,0,0,0,0,0,0,0,0,0,0,0,0,0,0,0,0,0,0,0,0,0],"sum_hessian":[4.7E2,5.8E1,4.12E2,5.3E1,5E0,2.36E2,1.76E2,4.8E1,5E0,4E0,1E0,2.26E2,1E1,1.72E2,4E0,2E0,4.6E1,1E0,4E0,1.1E1,2.15E2,5E0,5E0,1.69E2,3E0,1E0,3E0,9E0,2E0,2E0,2.13E2,4E0,1E0,1.67E2,2E0,2E0,1E0,1.64E2,3E0],"tree_param":{"num_deleted":"0","num_feature":"19","num_nodes":"39","size_leaf_vector":"0"}},{"base_weights":[2.5596688E0,1.5839186E0,2.6860626E0,1.712068E0,1.8992813E-1,2.7432258E0,1.282139E0,1.8420596E0,1.6647254E-1,4.771109E-1,-1.17459394E-1,3.0414617E0,2.2937598E0,9.452686E-2,1.5723413E0,1.9434223E0,4.655621E-1,-2.0280685E-1,4.905942E-1,1.3620987E-2,-1.4823602E-1,3.0607731E0,2.7932099E-1,2.3269844E0,1.5646097E-1,-2.0280685E-1,3.8291624E-1,1.8144453E0,-1.5732384E-1,2.043381E0,5.845231E-1,7.554072E-1,-1.7861992E-1,3.1487336E0,1.7912129E0,2.3496013E0,1.2499417E-1,1.8741208E0,1.6400702E-1,-1.1635152E-1,7.3396176E-1,5.6099427E-1,1.9936188E0,8.9473E-2,2.3605871E0,1.9923654E0,3.4061942E-1],"categories":[],"categories_nodes":[],"categories_segments":[],"categories_sizes":[],"default_left":[true,true,true,true,true,true,true,true,true,false,true,true,true,true,true,true,true,false,false,false,false,true,false,true,false,false,false,true,false,false,true,false,false,false,true,true,false,true,false,false,false,false,false,false,false,false,false],"id":1,"left_children":[1,3,5,7,9,11,13,15,17,-1,19,21,23,25,27,29,31,-1,-1,-1,-1,33,-1,35,-1,-1,-1,37,-1,-1,39,-1,-1,-1,41,43,-1,45,-1,-1,-1,-1,-1,-1,-1,-1,-1],"loss_changes":[4.200586E1,1.0246811E1,1.9375488E1,1.0561661E1,1.1237513E0,2.5273926E1,7.6340065E0,3.8106995E0,1.4928571E0,0E0,4.4709235E-2,8.607178E0,1.0953735E1,1.0944693E0,9.177334E0,1.7551727E0,2.250763E0,0E0,0E0,0E0,0E0,2.3032227E0,0E0,7.35553E0,0E0,0E0,0E0,3.7413788E-1,0E0,0E0,1.3107884E0,0E0,0E0,0E0,1.3892441E0,3.3186035E0,0E0,9.529877E-2,0E0,0E0,0E0,0E0,0E0,0E0,0E0,0E0,0E0],"parents":[2147483647,0,0,1,1,2,2,3,3,4,4,5,5,6,6,7,7,8,8,10,10,11,11,12,12,13,13,14,14,15,15,16,16,21,21,23,23,27,27,30,30,34,34,35,35,37,37],"right_children":[2,4,6,8,10,12,14,16,18,-1,20,22,24,26,28,30,32,-1,-1,-1,-1,34,-1,36,-1,-1,-1,38,-1,-1,40,-1,-1,-1,42,44,-1,46,-1,-1,-1,-1,-1,-1,-1,-1,-1],"split_conditions":[8.405E1,1.46E1,1.5125E1,1.9166667E0,1.6666667E-1,1.09E1,1E-1,7.8533334E-4,7.65E1,2.7006526E-2,1.51E1,9.166666E-1,1E-2,9E0,8.3333335E-4,1E-1,1.4E1,-1.1479739E-2,2.776974E-2,7.7100634E-4,-8.390795E-3,6.25E-2,1.5810767E-2,2.3555E0,8.856363E-3,-1.1479739E-2,2.1674704E-2,2E0,-8.905205E-3,1.1566414E-1,1E-1,4.275929E-2,-1.0110655E-2,1.7823185E-1,3.6666667E-1,5.2E0,7.0752073E-3,2E-1,9.283502E-3,-6.585996E-3,4.1545387E-2,3.1754684E-2,1.1284739E-1,5.0645564E-3,1.3361937E-1,1.12776436E-1,1.9280523E-2],"split_indices":[1,18,18,9,8,17,4,15,1,0,18,4,13,17,15,6,17,0,0,0,0,6,0,16,0,0,0,16,0,0,4,0,0,0,8,18,0,6,0,0,0,0,0,0,0,0,0],"split_type":[0,0,0,0,0,0,0,0,0,0,0,0,0,0,0,0,0,0,0,0,0,0,0,0,0,0,0,0,0,0,0,0,0,0,0,0,0,0,0,0,0,0,0,0,0,0,0],"sum_hessian":[4.77E2,6.1E1,4.16E2,5.5E1,6E0,3.96E2,2E1,5E1,5E0,2E0,4E0,2.24E2,1.72E2,5E0,1.5E1,4.5E1,5E0,3E0,2E0,1E0,3E0,2.22E2,2E0,1.69E2,3E0,3E0,2E0,1.3E1,2E0,4E1,5E0,3E0,2E0,2.02E2,2E1,1.67E2,2E0,1.2E1,1E0,1E0,4E0,5E0,1.5E1,1E0,1.66E2,1E1,2E0],"tree_param":{"num_deleted":"0","num_feature":"19","num_nodes":"47","size_leaf_vector":"0"}},{"base_weights":[2.3994782E0,1.5161964E0,2.5128818E0,-1.4788373E-1,1.579965E0,2.7741802E0,2.17847E0,6.136363E-1,1.7390492E0,2.7943046E0,1.9704627E-1,1.2382925E0,2.4265504E0,1.0603384E0,-1.533471E-1,1.8403596E0,2.686369E-1,2.832731E0,8.667586E-1,1.5048507E0,2.923222E-1,8.399794E-1,2.5364797E0,1.3570962E0,-3.8873084E-2,-0E0,-1.9910198E-1,2.91718E-1,1.8822789E0,-1.7537892E-1,5.3802276E-1,2.8414268E0,1.9701645E-1,7.797821E-2,9.157777E-1,1.6823817E0,1.8007983E-1,-2.2691531E-1,6.1328715E-1,1.0191717E0,-1.3333687E-1,2.5510633E0,8.9092284E-2,-5.9940107E-2,1.5971087E0,-1.3929895E-1,8.664953E-2,1.3468025E-2,-1.04051195E-2,-8.8106245E-2,4.437643E-1,4.0492043E-1,1.800949E0,2.2441517E-1,-2.8932003E-2,3.8298775E-2,-2.8294757E-1,6.6583216E-1,1.0941483E-2,1.0673988E0,7.1364954E-2,2.5656104E0,9.588493E-2],"categories":[],"categories_nodes":[],"categories_segments":[],"categories_sizes":[],"default_left":[true,true,true,false,true,true,true,true,true,true,false,true,true,true,true,true,true,true,true,true,true,true,true,true,true,true,false,true,false,false,false,false,false,false,false,true,true,true,true,true,false,true,false,false,false,false,false,false,false,false,false,false,false,false,false,false,false,false,false,false,false,false,false],"id":2,"left_children":[1,3,5,-1,7,9,11,13,15,17,-1,19,21,23,25,27,29,31,33,35,37,39,41,43,45,47,-1,49,-1,-1,-1,-1,-1,-1,-1,51,53,55,57,59,-1,61,-1,-1,-1,-1,-1,-1,-1,-1,-1,-1,-1,-1,-1,-1,-1,-1,-1,-1,-1,-1,-1],"loss_changes":[3.186621E1,7.7835236E0,1.1522705E1,0E0,5.1537323E0,8.940308E0,3.4404846E1,5.837727E0,5.541397E0,5.894409E0,0E0,1.078569E1,1.8154724E1,3.528614E0,6.650463E-2,7.687683E-1,1.3540517E0,2.4365234E0,6.9313526E-2,7.665619E0,3.2473335E0,3.3737574E0,4.0705566E0,3.1683645E0,1.265211E-1,1.459972E-3,0E0,5.176819E-1,0E0,0E0,0E0,0E0,0E0,0E0,0E0,1.9906235E0,1.15982205E-1,1.8560681E-1,2.993102E-1,2.99201E-1,0E0,3.9620972E0,0E0,0E0,0E0,0E0,0E0,0E0,0E0,0E0,0E0,0E0,0E0,0E0,0E0,0E0,0E0,0E0,0E0,0E0,0E0,0E0,0E0],"parents":[2147483647,0,0,1,1,2,2,4,4,5,5,6,6,7,7,8,8,9,9,11,11,12,12,13,13,14,14,15,15,16,16,17,17,18,18,19,19,20,20,21,21,22,22,23,23,24,24,25,25,27,27,35,35,36,36,37,37,38,38,39,39,41,41],"right_children":[2,4,6,-1,8,10,12,14,16,18,-1,20,22,24,26,28,30,32,34,36,38,40,42,44,46,48,-1,50,-1,-1,-1,-1,-1,-1,-1,52,54,56,58,60,-1,62,-1,-1,-1,-1,-1,-1,-1,-1,-1,-1,-1,-1,-1,-1,-1,-1,-1,-1,-1,-1,-1],"split_conditions":[8.405E1,7.75E-1,2.15E1,-8.370854E-3,6.525E1,4.5E-1,2.1833334E0,2.15E1,7.8533334E-4,2.25E-1,1.1153665E-2,1.55657E0,9.6405E-1,6.19E1,2.85E1,5.5E0,1.2825E-3,1.3E0,3.375E0,3.61E-4,8.3333336E-2,8.3333336E-2,2.3E-2,9.5E0,1.5E1,2.6E1,-1.1270028E-2,7.48E1,1.06545076E-1,-9.9272E-3,3.0454399E-2,1.6083696E-1,1.1151977E-2,4.413902E-3,5.1836953E-2,7.916666E-1,2.8E1,2.9E1,3.15E1,9.5677334E-1,-7.5474395E-3,4.775E0,5.043006E-3,-3.3928675E-3,9.0403214E-2,-7.884919E-3,4.904736E-3,7.6234806E-4,-5.8897445E-4,-4.987192E-3,2.5118966E-2,2.2920236E-2,1.0194145E-1,1.2702863E-2,-1.6376757E-3,2.1678752E-3,-1.6016047E-2,3.768896E-2,6.193349E-4,6.041936E-2,4.039563E-3,1.4522457E-1,5.427499E-3],"split_indices":[1,5,0,0,1,10,5,0,15,6,0,16,16,1,0,0,15,8,5,15,10,6,13,0,0,0,0,1,0,0,0,0,0,0,0,5,0,0,0,16,0,5,0,0,0,0,0,0,0,0,0,0,0,0,0,0,0,0,0,0,0,0,0],"split_type":[0,0,0,0,0,0,0,0,0,0,0,0,0,0,0,0,0,0,0,0,0,0,0,0,0,0,0,0,0,0,0,0,0,0,0,0,0,0,0,0,0,0,0,0,0,0,0,0,0,0,0,0,0,0,0,0,0,0,0,0,0,0,0],"sum_hessian":[4.69E2,6E1,4.09E2,2E0,5.8E1,2.13E2,1.96E2,1.1E1,4.7E1,2.11E2,2E0,4.6E1,1.5E2,6E0,5E0,4.3E1,4E0,2.05E2,6E0,3.4E1,1.2E1,1.2E1,1.38E2,4E0,2E0,2E0,3E0,2E0,4.1E1,2E0,2E0,2.04E2,1E0,1E0,5E0,2.9E1,5E0,5E0,7E0,1E1,2E0,1.37E2,1E0,1E0,3E0,1E0,1E0,1E0,1E0,1E0,1E0,4E0,2.5E1,4E0,1E0,1E0,4E0,6E0,1E0,9E0,1E0,1.36E2,1E0],"tree_param":{"num_deleted":"0","num_feature":"19","num_nodes":"63","size_leaf_vector":"0"}},{"base_weights":[2.2906344E0,1.4405121E0,2.3999033E0,1.5927752E0,1.1010542E-1,2.4514112E0,1.1885664E0,1.7199713E0,1.3127548E-1,3.0469412E-1,-1.1180977E-1,2.9786685E-1,2.464575E0,1.8987286E-1,1.5318587E0,-1.451121E-1,1.8051399E0,4.4612202E-1,-2.0984705E-1,-8.71168E-2,4.328914E-1,1.33167785E-2,-1.4156614E-1,5.292129E-3,3.377032E-1,2.4863374E0,7.9102474E-1,-2.664498E-1,4.9782982E-1,1.7957184E0,-1.8842006E-1,1.8866206E0,4.1753078E-1,2.6207127E-2,5.0236017E-1,6.6178423E-1,2.5030067E0,-0E0,8.6970264E-1,1.8683894E0,1.3335307E-1,1.984842E0,5.8330125E-1,7.018096E-1,-1.4097257E-1,8.3016545E-1,-1.3124017E-1,2.51317E0,5.107214E-1,1.412669E-1,9.761069E-1],"categories":[],"categories_nodes":[],"categories_segments":[],"categories_sizes":[],"default_left":[true,true,true,true,true,true,true,true,true,true,true,true,true,true,true,false,true,true,false,false,false,false,false,false,false,true,true,false,false,true,false,true,true,false,false,true,true,false,true,false,false,false,false,false,false,false,false,false,false,false,false],"id":3,"left_children":[1,3,5,7,9,11,13,15,17,19,21,23,25,27,29,-1,31,33,-1,-1,-1,-1,-1,-1,-1,35,37,-1,-1,39,-1,41,43,-1,-1,45,47,-1,49,-1,-1,-1,-1,-1,-1,-1,-1,-1,-1,-1,-1],"loss_changes":[3.0692139E1,1.2414734E1,1.4386475E1,9.820663E0,6.202913E-1,8.290283E0,7.357136E0,9.534409E0,1.3564229E0,5.165733E-1,4.1473843E-2,6.4352036E-2,6.4138184E0,2.094499E0,9.60495E0,0E0,2.5176544E0,7.329631E-2,0E0,0E0,0E0,0E0,0E0,0E0,0E0,5.072998E0,6.8618345E-1,0E0,0E0,8.6990356E-1,0E0,1.2655182E0,1.6934614E0,0E0,0E0,1.6687362E0,2.5180664E0,0E0,1.869278E-1,0E0,0E0,0E0,0E0,0E0,0E0,0E0,0E0,0E0,0E0,0E0,0E0],"parents":[2147483647,0,0,1,1,2,2,3,3,4,4,5,5,6,6,7,7,8,8,9,9,10,10,11,11,12,12,13,13,14,14,16,16,17,17,25,25,26,26,29,29,31,31,32,32,35,35,36,36,38,38],"right_children":[2,4,6,8,10,12,14,16,18,20,22,24,26,28,30,-1,32,34,-1,-1,-1,-1,-1,-1,-1,36,38,-1,-1,40,-1,42,44,-1,-1,46,48,-1,50,-1,-1,-1,-1,-1,-1,-1,-1,-1,-1,-1,-1],"split_conditions":[8.405E1,1.435E1,1.5125E1,1.9166667E0,1.6666667E-1,1E-1,7E0,7.75E-1,2.5E1,5.5E0,1.51E1,1.7E0,1.9285714E-2,3.25E0,8.3333335E-4,-8.213968E-3,1E-1,1.75E1,-1.1878245E-2,-4.931185E-3,2.4503512E-2,7.537869E-4,-8.013252E-3,2.9955723E-4,1.9115452E-2,7.916666E-1,2.65E1,-1.5082204E-2,2.8179307E-2,3.875E0,-1.0665385E-2,3.55E1,2.25E1,1.483436E-3,2.8435744E-2,3.75E-1,3.2916665E0,-0E0,2.1833334E0,1.0575887E-1,7.5483564E-3,1.1235058E-1,3.3017356E-2,3.9725438E-2,-7.979653E-3,4.699093E-2,-7.428758E-3,1.4225622E-1,2.8909024E-2,7.996313E-3,5.5251844E-2],"split_indices":[1,18,18,9,8,9,0,5,0,0,18,5,15,5,14,0,6,0,0,0,0,0,0,0,0,5,0,0,0,5,0,0,0,0,0,8,9,0,5,0,0,0,0,0,0,0,0,0,0,0,0],"split_type":[0,0,0,0,0,0,0,0,0,0,0,0,0,0,0,0,0,0,0,0,0,0,0,0,0,0,0,0,0,0,0,0,0,0,0,0,0,0,0,0,0,0,0,0,0,0,0,0,0,0,0],"sum_hessian":[4.78E2,6.1E1,4.17E2,5.4E1,7E0,3.96E2,2.1E1,4.9E1,5E0,3E0,4E0,3E0,3.93E2,7E0,1.4E1,2E0,4.7E1,2E0,3E0,1E0,2E0,1E0,3E0,1E0,2E0,3.86E2,7E0,3E0,4E0,1.2E1,2E0,4.3E1,4E0,1E0,1E0,5E0,3.81E2,1E0,6E0,1.1E1,1E0,3.8E1,5E0,2E0,2E0,4E0,1E0,3.78E2,3E0,2E0,4E0],"tree_param":{"num_deleted":"0","num_feature":"19","num_nodes":"51","size_leaf_vector":"0"}},{"base_weights":[2.1626427E0,2.1885512E0,-1.5619126E-1,2.2468083E0,9.3917567E-1,-2.9647955E-1,1.0673763E-1,5.3150046E-1,2.2651222E0,1.1160884E0,-2.2468504E-1,1.167669E-1,5.0831386E-3,8.06788E-1,-1.8539438E-1,2.281336E0,4.6378207E-1,1.8807144E-1,1.4323603E0,2.923941E-1,2.2922657E0,-0E0,5.213308E-1,-2.6002312E-1,4.8972887E-1,-8.4029496E-2,1.6445032E0,5.232694E-3,3.3137402E-1,1.7076222E0,1.318555E-1],"categories":[],"categories_nodes":[],"categories_segments":[],"categories_sizes":[],"default_left":[true,true,true,true,true,false,true,true,true,true,false,true,true,false,false,true,true,true,true,true,false,false,false,false,false,false,true,false,false,false,false],"id":4,"left_children":[1,3,5,7,9,-1,-1,13,15,17,-1,-1,-1,-1,-1,19,21,23,25,27,-1,-1,-1,-1,-1,-1,29,-1,-1,-1,-1],"loss_changes":[3.0162842E1,2.5807129E1,4.6712264E-1,9.156494E0,6.8140163E0,0E0,3.580004E-5,2.6048257E0,8.580811E0,6.21154E0,0E0,0E0,0E0,0E0,0E0,6.7353516E0,2.4073207E-1,2.0138702E0,6.409466E0,6.151247E-2,0E0,0E0,0E0,0E0,0E0,0E0,5.6552887E-1,0E0,0E0,0E0,0E0],"parents":[2147483647,0,0,1,1,2,2,3,3,4,4,6,6,7,7,8,8,9,9,15,15,16,16,17,17,18,18,19,19,26,26],"right_children":[2,4,6,8,10,-1,-1,14,16,18,-1,-1,-1,-1,-1,20,22,24,26,28,-1,-1,-1,-1,-1,-1,30,-1,-1,-1,-1],"split_conditions":[3.0833335E0,1.51E1,2.3085E0,7.75E-1,6.4E-4,-1.6782016E-2,6.0418085E-3,5E-6,1.9166667E-2,7.5E0,-1.2718138E-2,6.6095083E-3,2.8772748E-4,4.5667667E-2,-1.0494119E-2,8.3333336E-2,2.65E1,3.25E0,7.5E-1,1.7E0,1.2975208E-1,-0E0,2.9509561E-2,-1.4718425E-2,2.7720759E-2,-4.7564306E-3,3.875E0,2.9619297E-4,1.8757192E-2,9.665875E-2,7.463588E-3],"split_indices":[9,18,16,5,14,0,0,14,13,0,0,2147483647,2147483647,0,0,9,0,5,9,5,0,0,0,0,0,0,5,0,0,0,0],"split_type":[0,0,0,0,0,0,0,0,0,0,0,0,0,0,0,0,0,0,0,0,0,0,0,0,0,0,0,0,0,0,0],"sum_hessian":[4.74E2,4.69E2,5E0,4.45E2,2.4E1,3E0,2E0,6E0,4.39E2,2.1E1,3E0,1E0,1E0,4E0,2E0,4.34E2,5E0,7E0,1.4E1,3E0,4.31E2,1E0,4E0,3E0,4E0,2E0,1.2E1,1E0,2E0,1.1E1,1E0],"tree_param":{"num_deleted":"2","num_feature":"19","num_nodes":"31","size_leaf_vector":"0"}},{"base_weights":[2.0213454E0,2.3108835E0,1.6317989E0,2.3917203E0,4.5167342E-1,1.2689954E0,2.0008612E0,1.479479E-1,2.4344172E0,-1.9470626E-2,7.4410194E-1,1.5418881E0,8.011046E-1,3.6657986E-1,2.125136E0,6.158726E-1,-2.159308E-1,2.6917288E-1,2.4743614E0,-2.784518E-1,3.33224E-1,8.8329583E-1,-9.5964834E-2,1.6500915E0,4.4642666E-1,9.0614283E-1,1.3681504E-1,7.291707E-1,-3.0504814E-1,-1.1302117E-1,2.1796558E0,-2.4193956E-1,-4.4714863E-4,-1.8444769E-1,5.082287E-1,2.489391E0,2.144637E-1,1.010268E-1,1.6929568E0,-1.6989613E-1,8.422161E-1,2.947009E-1,1.142574E0,2.0424733E-1,-1.14494756E-1,-8.4263735E-2,8.764841E-1,-1.7918837E-1,3.7680093E-2,2.229558E0,3.0040798E-1,8.2356465E-1,2.5176282E0,2.457747E-1,5.1739337E-3,-1.8576707E-1,3.1290132E-1,1.7380065E0,3.3926424E-1,3.6614217E-2,-2.678238E-1,6.353698E-1,-8.573458E-2,5.63552E-2,1.3412203E0,-0E0,2.2448355E-1,2.2466664E0,1.4083828E-1],"categories":[],"categories_nodes":[],"categories_segments":[],"categories_sizes":[],"default_left":[true,true,true,true,true,true,true,true,true,true,true,true,true,true,true,false,true,true,true,false,false,false,false,true,true,true,true,true,false,true,true,false,false,false,false,true,true,true,true,true,false,true,true,true,false,false,false,false,false,true,false,false,false,false,false,false,false,false,false,false,false,false,false,false,false,false,false,false,false],"id":5,"left_children":[1,3,5,7,9,11,13,15,17,19,21,23,25,27,29,-1,31,33,35,-1,-1,-1,-1,37,39,41,43,45,-1,47,49,-1,-1,-1,-1,51,53,55,57,59,-1,61,63,65,-1,-1,-1,-1,-1,67,-1,-1,-1,-1,-1,-1,-1,-1,-1,-1,-1,-1,-1,-1,-1,-1,-1,-1,-1],"loss_changes":[3.867383E1,3.5381958E1,1.883612E1,2.2707642E1,2.2906673E0,1.0392563E1,1.7297516E1,2.0888286E0,1.8677979E1,1.290324E0,1.5405955E0,5.4987183E0,3.1681557E0,3.8438282E0,1.2411713E1,0E0,3.7216395E-2,1.368996E0,6.0151367E0,0E0,0E0,0E0,0E0,3.5064697E0,3.5357494E0,5.1068115E0,3.0127025E-1,1.40593E0,0E0,9.1837E-2,5.75412E0,0E0,0E0,0E0,0E0,2.8583984E0,2.6775032E-2,6.0578156E-1,1.3375397E0,2.0928922E-1,0E0,2.5749736E0,6.3495865E0,4.5392424E-2,0E0,0E0,0E0,0E0,0E0,1.7946472E0,0E0,0E0,0E0,0E0,0E0,0E0,0E0,0E0,0E0,0E0,0E0,0E0,0E0,0E0,0E0,0E0,0E0,0E0,0E0],"parents":[2147483647,0,0,1,1,2,2,3,3,4,4,5,5,6,6,7,7,8,8,9,9,10,10,11,11,12,12,13,13,14,14,16,16,17,17,18,18,23,23,24,24,25,25,26,26,27,27,29,29,30,30,35,35,36,36,37,37,38,38,39,39,41,41,42,42,43,43,49,49],"right_children":[2,4,6,8,10,12,14,16,18,20,22,24,26,28,30,-1,32,34,36,-1,-1,-1,-1,38,40,42,44,46,-1,48,50,-1,-1,-1,-1,52,54,56,58,60,-1,62,64,66,-1,-1,-1,-1,-1,68,-1,-1,-1,-1,-1,-1,-1,-1,-1,-1,-1,-1,-1,-1,-1,-1,-1,-1,-1],"split_conditions":[1.09E1,1.51E1,1.61E1,6.525E1,2.45E1,2.45E1,1.9166667E0,1.5E0,7.75E-1,3.5666666E0,4.5E-1,1.5299999E1,1.116E-3,2.75E1,6.75E0,3.4861036E-2,1.6666667E-1,2.65E1,9.166666E-1,-1.5761567E-2,1.886191E-2,4.999834E-2,-5.432022E-3,6.525E1,3E-1,8.3333336E-2,3.65E1,8.1E1,-1.7267035E-2,3.55E1,1E-1,-1.3694818E-2,-2.5310534E-5,-1.0440532E-2,2.8767928E-2,5.5E0,2.05E1,1.55E1,2.35E1,1.75E1,4.7673047E-2,8.3333336E-2,8.25E1,2.65E1,-6.480895E-3,-4.7696894E-3,4.9612764E-2,-1.0142831E-2,2.1328551E-3,1.3E0,1.7004382E-2,4.6617296E-2,1.4250857E-1,1.3911904E-2,2.9286687E-4,-1.0515214E-2,1.771156E-2,9.8378636E-2,1.9203814E-2,2.072522E-3,-1.5159977E-2,3.596466E-2,-4.852946E-3,3.1899465E-3,7.591883E-2,-0E0,1.2706733E-2,1.2717097E-1,7.972051E-3],"split_indices":[17,18,17,1,0,0,5,5,5,5,4,17,15,0,18,0,4,0,4,0,0,0,0,1,8,4,0,1,0,0,3,0,0,0,0,0,0,0,0,0,0,8,1,0,0,0,0,0,0,8,0,0,0,0,0,0,0,0,0,0,0,0,0,0,0,0,0,0,0],"split_type":[0,0,0,0,0,0,0,0,0,0,0,0,0,0,0,0,0,0,0,0,0,0,0,0,0,0,0,0,0,0,0,0,0,0,0,0,0,0,0,0,0,0,0,0,0,0,0,0,0,0,0,0,0,0,0,0,0,0,0,0,0,0,0,0,0,0,0,0,0],"sum_hessian":[4.75E2,2.61E2,2.14E2,2.49E2,1.2E1,1.17E2,9.7E1,5E0,2.44E2,6E0,6E0,6.8E1,4.9E1,8E0,8.9E1,1E0,4E0,5E0,2.39E2,4E0,2E0,5E0,1E0,6E1,8E0,4.1E1,8E0,5E0,3E0,2E0,8.7E1,3E0,1E0,2E0,3E0,2.37E2,2E0,2E0,5.8E1,4E0,4E0,1.4E1,2.7E1,7E0,1E0,1E0,4E0,1E0,1E0,8.4E1,3E0,6E0,2.31E2,1E0,1E0,1E0,1E0,5.5E1,3E0,2E0,2E0,6E0,8E0,5E0,2.2E1,1E0,6E0,8.3E1,1E0],"tree_param":{"num_deleted":"0","num_feature":"19","num_nodes":"69","size_leaf_vector":"0"}},{"base_weights":[1.9104708E0,2.1871924E0,1.541102E0,2.2516115E0,5.009587E-1,1.1606394E0,1.8754927E0,2.3300407E0,1.1018627E0,-1.6948583E-2,8.556431E-1,1.4791597E0,6.4979446E-1,1.1272598E-1,1.954027E0,1.1437268E0,2.4124599E0,1.9822714E-1,1.3563101E0,-2.7061063E-1,3.269787E-1,1.5866039E0,-1.027463E-1,6.8653613E-1,-2.2978526E-1,3.8577572E-1,-2.7586955E-1,6.4348996E-2,1.9875602E0,1.4301786E0,-3.236837E-1,6.850914E-1,2.448309E0,-2.2747481E-1,5.145104E-1,1.3982768E0,1.2114414E-1,9.983544E-2,1.6282091E0,1.2097811E-1,-2.6280424E-1,-5.9196213E-3,7.478802E-1,-8.3317444E-2,5.242259E-1,2.0258431E0,2.931622E-1,1.2988602E-1,1.4693025E0,1.1429061E0,-1.6154736E-1,7.8592736E-1,-2.1712394E-1,-1.8368089E-1,3.0938742E-1,1.6448858E0,1.18318155E-1,1.848007E-1,-1.4340527E-1,8.628877E-1,1.3102125E-1,2.0458934E0,-0E0,3.4584412E-1,4.8046783E-2],"categories":[],"categories_nodes":[],"categories_segments":[],"categories_sizes":[],"default_left":[true,true,true,true,true,true,true,true,true,true,false,true,true,true,true,true,true,true,true,false,false,true,true,true,false,true,false,false,true,true,false,true,false,false,true,false,false,true,true,false,false,true,true,false,false,true,true,false,false,false,false,false,false,false,false,false,false,false,false,false,false,false,false,false,false],"id":6,"left_children":[1,3,5,7,9,11,13,15,17,19,-1,21,23,25,27,29,31,33,35,-1,-1,37,39,41,-1,43,-1,-1,45,47,-1,49,-1,-1,51,-1,-1,53,55,-1,-1,57,59,-1,-1,61,63,-1,-1,-1,-1,-1,-1,-1,-1,-1,-1,-1,-1,-1,-1,-1,-1,-1,-1],"loss_changes":[3.5741943E1,2.4365967E1,1.9233643E1,1.2609985E1,2.847053E0,1.4607529E1,1.4419037E1,1.18220215E1,4.393749E0,1.2317245E0,0E0,1.2098633E1,2.3008423E0,1.3925929E0,6.1399536E0,1.1589073E1,6.5672607E0,1.8335167E0,2.0428085E-1,0E0,0E0,3.1899261E0,4.20711E-1,2.1661854E0,0E0,6.471951E-1,0E0,0E0,4.27829E0,1.9955444E-1,0E0,4.667681E0,0E0,0E0,2.104921E0,0E0,0E0,5.9232056E-1,6.967468E-1,0E0,0E0,3.1664062E-1,2.779087E0,0E0,0E0,4.0631714E0,1.1736333E-2,0E0,0E0,0E0,0E0,0E0,0E0,0E0,0E0,0E0,0E0,0E0,0E0,0E0,0E0,0E0,0E0,0E0,0E0],"parents":[2147483647,0,0,1,1,2,2,3,3,4,4,5,5,6,6,7,7,8,8,9,9,11,11,12,12,13,13,14,14,15,15,16,16,17,17,18,18,21,21,22,22,23,23,25,25,28,28,29,29,31,31,34,34,37,37,38,38,41,41,42,42,45,45,46,46],"right_children":[2,4,6,8,10,12,14,16,18,20,-1,22,24,26,28,30,32,34,36,-1,-1,38,40,42,-1,44,-1,-1,46,48,-1,50,-1,-1,52,-1,-1,54,56,-1,-1,58,60,-1,-1,62,64,-1,-1,-1,-1,-1,-1,-1,-1,-1,-1,-1,-1,-1,-1,-1,-1,-1,-1],"split_conditions":[1.09E1,1.51E1,1.5700001E1,6.25E-2,2.45E1,2.35E1,1.675E0,1.0714285E0,3.6666667E-1,3.5666666E0,4.8433077E-2,1.5299999E1,1E-1,2.9E1,6.4E0,4.166667E-1,6.525E1,3.2E1,3.65E1,-1.5317724E-2,1.85084E-2,6.525E1,1.7E1,7.35E1,-1.3006833E-2,8.1E1,-1.5615402E-2,3.6424296E-3,1E-1,5.833334E-1,-1.8321889E-2,2.15E1,1.3858481E-1,-1.28760515E-2,3.65E1,7.914847E-2,6.8572788E-3,1.55E1,1.5E0,6.847881E-3,-1.4875849E-2,1.6666667E-1,1.6016667E-3,-4.7161253E-3,2.9673437E-2,2.25E-1,5.5E0,7.3521067E-3,8.3168834E-2,6.469339E-2,-9.1442745E-3,4.4486865E-2,-1.2290148E-2,-1.0397128E-2,1.7512657E-2,9.31076E-2,6.6973157E-3,1.0460514E-2,-8.1173545E-3,4.884315E-2,7.416365E-3,1.15806356E-1,-0E0,1.9576263E-2,2.7196542E-3],"split_indices":[17,18,17,6,0,0,5,5,8,5,0,17,6,0,18,8,1,0,0,0,0,1,0,1,0,1,0,0,3,5,0,0,0,0,0,0,0,0,8,0,0,8,15,0,0,6,0,0,0,0,0,0,0,0,0,0,0,0,0,0,0,0,0,0,0],"split_type":[0,0,0,0,0,0,0,0,0,0,0,0,0,0,0,0,0,0,0,0,0,0,0,0,0,0,0,0,0,0,0,0,0,0,0,0,0,0,0,0,0,0,0,0,0,0,0,0,0,0,0,0,0,0,0,0,0,0,0,0,0,0,0,0,0],"sum_hessian":[4.8E2,2.63E2,2.17E2,2.52E2,1.1E1,1.1E2,1.07E2,2.32E2,2E1,6E0,5E0,6.3E1,4.7E1,5E0,1.02E2,1.9E1,2.13E2,6E0,1.4E1,4E0,2E0,5.9E1,4E0,4.6E1,1E0,3E0,2E0,2E0,1E2,1.6E1,3E0,6E0,2.07E2,3E0,3E0,1.3E1,1E0,2E0,5.7E1,2E0,2E0,4E0,4.2E1,1E0,2E0,9.7E1,3E0,1E0,1.5E1,3E0,3E0,2E0,1E0,1E0,1E0,5.6E1,1E0,1E0,3E0,3.4E1,8E0,9.6E1,1E0,1E0,2E0],"tree_param":{"num_deleted":"0","num_feature":"19","num_nodes":"65","size_leaf_vector":"0"}},{"base_weights":[1.8168561E0,2.0638118E0,1.5864999E0,2.082169E0,3.0394349E-1,1.2070359E0,1.9872891E0,1.0389467E0,2.143552E0,3.2960165E-1,2.3488801E-2,1.2913487E0,-7.003745E-2,2.061987E0,2.989046E-1,1.1270956E0,-1.2079927E-1,2.168845E0,6.280909E-1,6.826131E-1,1.4987123E0,1.956921E-1,-2.7845275E-1,2.0742009E0,1.1698943E-1,-3.1625664E-1,7.4686956E-1,3.0471928E-2,1.1793638E0,2.1767223E0,1.1628102E-1,-0E0,7.037187E-1,8.185729E-1,-8.2595935E-3,1.5011515E-1,1.5334806E0,1.29258195E-2,2.098924E-1,-3.8892552E-1,3.1504795E-2,2.2100668E0,8.0338603E-1,9.14397E-1,-2.6391983E-1,1.9820392E-1,-1.8869573E-1,-1.2889919E-1,2.875868E-1,1.5491291E0,-0E0,-0E0,3.65343E-2],"categories":[],"categories_nodes":[],"categories_segments":[],"categories_sizes":[],"default_left":[true,true,true,true,true,true,true,true,true,false,false,true,true,true,true,true,false,true,true,true,true,true,true,false,false,false,false,false,false,true,false,false,false,true,true,true,true,false,false,false,true,false,false,false,false,false,false,false,false,false,false,true,true],"id":7,"left_children":[1,3,5,7,9,11,13,15,17,-1,-1,19,21,23,25,27,-1,29,31,33,35,37,39,-1,-1,-1,-1,-1,-1,41,-1,-1,-1,43,45,47,49,-1,-1,-1,-1,-1,-1,-1,-1,-1,-1,-1,-1,-1,-1,-1,-1],"loss_changes":[1.44227295E1,4.543396E0,3.1279724E1,4.9310913E0,8.589566E-3,1.645047E1,1.3207489E1,2.6296005E0,2.1931763E0,0E0,0E0,1.3477081E1,9.448995E-1,1.7805481E0,3.7343524E0,9.091873E-1,0E0,2.109375E0,4.1534567E-1,4.0949097E0,3.756073E0,3.0953288E-3,3.6999172E-1,0E0,0E0,0E0,0E0,0E0,0E0,1.7571411E0,0E0,0E0,0E0,4.7333717E0,5.6211436E-1,4.2467198E-1,2.3294983E0,0E0,0E0,0E0,7.3228497E-4,0E0,0E0,0E0,0E0,0E0,0E0,0E0,0E0,0E0,0E0,0E0,0E0],"parents":[2147483647,0,0,1,1,2,2,3,3,4,4,5,5,6,6,7,7,8,8,11,11,12,12,13,13,14,14,15,15,17,17,18,18,19,19,20,20,21,21,22,22,29,29,33,33,34,34,35,35,36,36,40,40],"right_children":[2,4,6,8,10,12,14,16,18,-1,-1,20,22,24,26,28,-1,30,32,34,36,38,40,-1,-1,-1,-1,-1,-1,42,-1,-1,-1,44,46,48,50,-1,-1,-1,-1,-1,-1,-1,-1,-1,-1,-1,-1,-1,-1,-1,-1],"split_conditions":[1.95E1,4.5E-1,2.775E0,5.5E0,8.5E0,2.3666668E0,1.8333334E-1,2.7E0,2.25E-1,1.8656868E-2,1.329567E-3,9.7664E-1,3.15E1,9E-1,3.15E1,7.0000005E-1,-6.837758E-3,1.3E0,3.375E0,4.0249998E-4,4.5E-1,2.75E1,2.257E0,1.1740868E-1,6.622104E-3,-1.7901484E-2,4.2276025E-2,1.724842E-3,6.675706E-2,1E-1,6.582005E-3,-0E0,3.98335E-2,8.3333336E-2,2.05E1,2.4E1,2.732143E0,7.316569E-4,1.1880812E-2,-2.2014854E-2,1.7833067E-3,1.2509927E-1,4.54751E-2,5.17588E-2,-1.4938996E-2,1.1219193E-2,-1.0680988E-2,-7.296248E-3,1.6278649E-2,8.7687366E-2,-0E0,-0E0,2.0679983E-3],"split_indices":[0,10,5,0,0,9,6,9,6,0,0,16,0,4,0,9,0,8,5,15,9,0,16,0,0,0,0,0,0,3,0,0,0,6,0,0,5,0,0,0,0,0,0,0,0,0,0,0,0,0,0,2147483647,2147483647],"split_type":[0,0,0,0,0,0,0,0,0,0,0,0,0,0,0,0,0,0,0,0,0,0,0,0,0,0,0,0,0,0,0,0,0,0,0,0,0,0,0,0,0,0,0,0,0,0,0,0,0,0,0,0,0],"sum_hessian":[4.84E2,2.18E2,2.66E2,2.15E2,3E0,1.45E2,1.21E2,1.6E1,1.99E2,2E0,1E0,1.36E2,9E0,1.15E2,6E0,1.5E1,1E0,1.94E2,5E0,3.9E1,9.7E1,4E0,5E0,1.14E2,1E0,3E0,3E0,1E0,1.4E1,1.93E2,1E0,1E0,4E0,3.2E1,7E0,3E0,9.4E1,1E0,3E0,3E0,2E0,1.86E2,7E0,3E1,2E0,3E0,4E0,1E0,2E0,9.3E1,1E0,1E0,1E0],"tree_param":{"num_deleted":"2","num_feature":"19","num_nodes":"53","size_leaf_vector":"0"}},{"base_weights":[1.7267911E0,9.391642E-1,1.8304386E0,1.0676538E0,-3.1632322E-1,2.052841E0,1.5071508E0,1.33889E0,4.8211023E-1,2.1106415E0,2.6191002E-1,1.1285181E0,1.7934059E0,1.4933013E0,3.0430838E-1,-2.3029454E-1,8.729629E-1,1.8844023E0,2.7332354E0,-1.5336882E-1,5.493773E-1,1.4157531E0,6.5694106E-1,-9.9673085E-2,1.8570511E0,-1.4223675E-1,1.565491E0,4.6084735E-1,-1.0255178E-1,-3.735294E-1,2.6198536E-1,1.0790536E0,-2.190577E-1,1.9642094E0,8.457151E-1,2.7248237E-1,2.8089743E0,-2.9381448E-1,1.5968174E-1,7.0504516E-1,-1.0237704E-1,1.4808911E0,-7.658387E-2,1.1243172E-1,8.342832E-1,4.213729E-2,-1.9578403E-1,1.9069057E0,3.4936252E-1,1.5953285E0,1.2669511E-1,5.079512E-1,1.9572398E-2,1.3834106E0,1.1509741E-1,5.337847E-1,2.0137265E0,1.336081E0,-4.0215503E-2,1.5577779E0,1.0204514E-1,7.550507E-2,-1.7334698E-1,2.546037E-1,-1.3548377E-1,1.0739064E0,1.6844516E-1,1.9215871E0,1.0708311E-1,3.652912E-2,4.2344865E-1],"categories":[],"categories_nodes":[],"categories_segments":[],"categories_sizes":[],"default_left":[true,true,true,true,false,true,true,true,true,true,true,true,true,true,true,true,true,true,true,true,true,true,true,true,true,false,true,true,false,false,false,true,false,true,true,false,false,false,false,false,false,true,true,true,true,false,false,true,true,false,false,false,false,false,false,false,false,false,false,false,false,false,false,false,false,false,false,false,false,false,false],"id":8,"left_children":[1,3,5,7,-1,9,11,13,15,17,19,21,23,25,27,29,31,33,35,37,39,41,43,45,47,-1,49,51,-1,-1,-1,53,-1,55,57,-1,-1,-1,-1,-1,-1,59,61,63,65,-1,-1,67,69,-1,-1,-1,-1,-1,-1,-1,-1,-1,-1,-1,-1,-1,-1,-1,-1,-1,-1,-1,-1,-1,-1],"loss_changes":[3.207617E1,1.1718311E1,1.751941E1,6.713127E0,0E0,2.2231628E1,1.1897491E1,4.185997E0,7.804301E0,1.1310181E1,1.7899085E0,8.510551E0,1.2734528E1,4.7261505E0,8.413709E-1,1.2477877E0,4.8163652E0,8.209656E0,6.5123596E0,5.4717106E-1,1.1258144E0,5.657097E0,3.651682E0,1.3398601E-1,4.4581604E0,0E0,4.6329498E-1,1.1083281E-1,0E0,0E0,0E0,3.7235107E0,0E0,7.269043E0,8.962855E0,0E0,0E0,0E0,0E0,0E0,0E0,4.718033E0,1.4476766E-1,6.731365E-1,4.1836452E0,0E0,0E0,1.5386963E0,1.0979229E-1,0E0,0E0,0E0,0E0,0E0,0E0,0E0,0E0,0E0,0E0,0E0,0E0,0E0,0E0,0E0,0E0,0E0,0E0,0E0,0E0,0E0,0E0],"parents":[2147483647,0,0,1,1,2,2,3,3,5,5,6,6,7,7,8,8,9,9,10,10,11,11,12,12,13,13,14,14,15,15,16,16,17,17,18,18,19,19,20,20,21,21,22,22,23,23,24,24,26,26,27,27,31,31,33,33,34,34,41,41,42,42,43,43,44,44,47,47,48,48],"right_children":[2,4,6,8,-1,10,12,14,16,18,20,22,24,26,28,30,32,34,36,38,40,42,44,46,48,-1,50,52,-1,-1,-1,54,-1,56,58,-1,-1,-1,-1,-1,-1,60,62,64,66,-1,-1,68,70,-1,-1,-1,-1,-1,-1,-1,-1,-1,-1,-1,-1,-1,-1,-1,-1,-1,-1,-1,-1,-1,-1],"split_conditions":[8.405E1,1.9166667E0,1.09E1,1.19E1,-1.7905254E-2,1.5125E1,1.5700001E1,1.315E1,1.44E1,1.6333333E0,1.65E1,2.35E1,6.75E0,9.5E0,4.1666666E-1,2.0068E-2,6.71E-4,1.3875E1,7.208333E0,9E0,3.6E1,1.5299999E1,8.3333336E-2,1E-1,3.6666667E-1,-8.051211E-3,1.0258333E-3,3.1E1,-5.804871E-3,-2.114337E-2,1.4829497E-2,1.45E0,-1.2399606E-2,2.25E-1,5E-6,1.5423672E-2,1.5900001E-1,-1.6631162E-2,9.038673E-3,3.9908584E-2,-5.7949806E-3,2.25E-1,1.6E1,1.45E1,3.3333333E-6,2.3851518E-3,-1.1082217E-2,3.65E1,1.45E1,9.0302445E-2,7.1714874E-3,2.875222E-2,1.1078818E-3,7.830698E-2,6.515008E-3,3.0214507E-2,1.1398557E-1,7.562792E-2,-2.2763703E-3,8.817692E-2,5.7761935E-3,4.2739115E-3,-9.812184E-3,1.4411664E-2,-7.6689636E-3,6.078772E-2,9.534719E-3,1.0877009E-1,6.061364E-3,2.0677052E-3,2.3969013E-2],"split_indices":[1,9,17,17,0,18,17,18,17,9,0,0,18,0,8,14,14,18,18,17,0,17,4,8,10,0,15,0,0,0,0,9,0,9,14,0,0,0,0,0,0,10,0,17,15,0,0,0,0,0,0,0,0,0,0,0,0,0,0,0,0,0,0,0,0,0,0,0,0,0,0],"split_type":[0,0,0,0,0,0,0,0,0,0,0,0,0,0,0,0,0,0,0,0,0,0,0,0,0,0,0,0,0,0,0,0,0,0,0,0,0,0,0,0,0,0,0,0,0,0,0,0,0,0,0,0,0,0,0,0,0,0,0,0,0,0,0,0,0,0,0,0,0,0,0],"sum_hessian":[4.75E2,6E1,4.15E2,5.5E1,5E0,2.33E2,1.82E2,3.4E1,2.1E1,2.25E2,8E0,8.7E1,9.5E1,2.8E1,6E0,8E0,1.3E1,1.77E2,4.8E1,4E0,4E0,4.9E1,3.8E1,3E0,9.2E1,1E0,2.7E1,4E0,2E0,7E0,1E0,1.1E1,2E0,1.61E2,1.6E1,2E0,4.6E1,3E0,1E0,3E0,1E0,4.7E1,2E0,1.1E1,2.7E1,2E0,1E0,8.8E1,4E0,2.6E1,1E0,3E0,1E0,7E0,4E0,7E0,1.54E2,9E0,7E0,4.4E1,3E0,1E0,1E0,7E0,4E0,1.8E1,9E0,8.7E1,1E0,2E0,2E0],"tree_param":{"num_deleted":"0","num_feature":"19","num_nodes":"71","size_leaf_vector":"0"}},{"base_weights":[1.6458781E0,1.9163139E0,1.3997749E0,2.2086494E0,1.6202607E0,2.2597174E-1,1.4848557E0,2.3417847E0,9.1967416E-1,9.2473185E-1,1.8386378E0,5.97175E-1,-3.932721E-1,8.651522E-1,1.6694484E0,2.3796244E0,2.3131983E-1,9.5479304E-1,7.160295E-2,-1.0323111E-1,1.025517E0,1.988407E0,6.356E-1,-1.652065E-1,7.554916E-1,-1.4873177E-2,-4.2193037E-1,1.019305E0,1.2598091E-1,1.7011615E0,-1.2229733E-1,8.067173E-1,2.4773002E0,1.3557449E-1,-2.385112E-1,1.1223664E0,1.3248803E-1,1.1200556E0,2.1873171E0,-0E0,1.268977E0,8.6986434E-1,-1.399511E-1,1.1196299E0,1.2605233E-1,4.220612E-1,-1.11473925E-1,1.7713736E0,7.609192E-1,7.026869E-2,-2.0623958E-1,1.0456103E0,-8.5373186E-2,7.932573E-1,2.5713387E0,7.779481E-3,1.1574056E0,1.6391312E-1,-1.15451105E-2,1.599833E0,4.3305606E-1,2.9818034E-1,2.2311304E0,-3.702437E-1,3.6927325E-1,-9.009099E-2,9.8236257E-1,5.028264E-1,1.3632808E0,2.5572866E-1,-1.2581615E-1,-3.503719E-1,1.7963961E-1,1.7878058E0,-1.9358535E-1,9.213314E-1,-2.2208758E-1],"categories":[],"categories_nodes":[],"categories_segments":[],"categories_sizes":[],"default_left":[true,true,true,true,true,true,true,true,true,true,true,true,true,true,true,true,false,false,false,true,true,true,true,false,true,false,false,true,true,true,true,true,true,false,false,true,true,true,true,true,false,true,false,true,true,false,true,true,true,false,false,false,false,false,false,false,false,false,false,false,false,false,false,false,false,false,false,false,false,false,false,false,false,false,false,false,false],"id":9,"left_children":[1,3,5,7,9,11,13,15,17,19,21,23,25,27,29,31,-1,-1,-1,33,35,37,39,-1,41,-1,-1,43,45,47,49,51,53,-1,-1,55,57,59,61,63,-1,65,-1,67,69,-1,71,73,75,-1,-1,-1,-1,-1,-1,-1,-1,-1,-1,-1,-1,-1,-1,-1,-1,-1,-1,-1,-1,-1,-1,-1,-1,-1,-1,-1,-1],"loss_changes":[2.1475708E1,4.5543823E0,2.5560425E1,8.366364E0,1.2037964E1,6.2513165E0,2.2804077E1,4.7269897E0,1.7013836E-1,4.3970413E0,1.1216858E1,2.4583707E0,8.101869E-2,6.9711494E0,1.1630493E1,5.0437317E0,0E0,0E0,0E0,3.6124122E-1,2.3914566E0,3.6524353E0,6.4673553E0,0E0,1.9521179E0,0E0,0E0,4.2345543E0,1.3273203E0,6.758362E0,1.765141E-1,2.7428894E0,4.1730957E0,0E0,0E0,1.1402664E0,4.869604E-2,4.7328796E0,2.204193E0,2.198591E0,0E0,1.7931309E0,0E0,4.393032E0,4.6190298E-1,0E0,1.0968903E0,6.937439E0,4.0081997E0,0E0,0E0,0E0,0E0,0E0,0E0,0E0,0E0,0E0,0E0,0E0,0E0,0E0,0E0,0E0,0E0,0E0,0E0,0E0,0E0,0E0,0E0,0E0,0E0,0E0,0E0,0E0,0E0],"parents":[2147483647,0,0,1,1,2,2,3,3,4,4,5,5,6,6,7,7,8,8,9,9,10,10,11,11,12,12,13,13,14,14,15,15,19,19,20,20,21,21,22,22,24,24,27,27,28,28,29,29,30,30,31,31,32,32,35,35,36,36,37,37,38,38,39,39,41,41,43,43,44,44,46,46,47,47,48,48],"right_children":[2,4,6,8,10,12,14,16,18,20,22,24,26,28,30,32,-1,-1,-1,34,36,38,40,-1,42,-1,-1,44,46,48,50,52,54,-1,-1,56,58,60,62,64,-1,66,-1,68,70,-1,72,74,76,-1,-1,-1,-1,-1,-1,-1,-1,-1,-1,-1,-1,-1,-1,-1,-1,-1,-1,-1,-1,-1,-1,-1,-1,-1,-1,-1,-1],"split_conditions":[1.95E1,2.775E0,7.2375E1,4.2499998E-4,9.55E0,2.325E0,2.1833334E0,1E-1,1.44E1,2.9E0,1.4666666E1,7.75E-1,6.15E1,1.7333333E0,1.6875E1,5.5E0,1.3093696E-2,5.4045387E-2,4.0530344E-3,1.45E1,9.2E0,1.1E0,7E0,-9.351398E-3,1.75E0,-8.418857E-4,-2.388307E-2,2.0714285E0,3.05E1,6.25E-2,3.65E1,2.5E0,6.975E1,7.6740985E-3,-1.3500758E-2,5.9E0,1E1,3.375E0,9.733334E0,3.35E0,7.182955E-2,6.375E1,-7.921834E-3,8.1666666E-1,8.3333335E-4,2.3890477E-2,8.3333336E-2,3E0,3.875E-1,3.9775097E-3,-1.16740465E-2,5.9186034E-2,-4.832489E-3,4.490177E-2,1.4554882E-1,4.4035204E-4,6.551413E-2,9.278187E-3,-6.535028E-4,9.055742E-2,2.4512833E-2,1.6878288E-2,1.2629156E-1,-2.0957384E-2,2.0902453E-2,-5.099537E-3,5.560594E-2,2.8462134E-2,7.716755E-2,1.4475341E-2,-7.121735E-3,-1.9832555E-2,1.0168374E-2,1.0119749E-1,-1.0957763E-2,5.2151315E-2,-1.2571111E-2],"split_indices":[0,5,1,14,18,5,5,6,18,5,18,5,1,9,18,0,0,0,0,0,18,9,0,0,9,0,0,5,0,6,0,5,1,0,0,18,0,5,18,5,0,1,0,9,14,0,10,9,4,0,0,0,0,0,0,0,0,0,0,0,0,0,0,0,0,0,0,0,0,0,0,0,0,0,0,0,0],"split_type":[0,0,0,0,0,0,0,0,0,0,0,0,0,0,0,0,0,0,0,0,0,0,0,0,0,0,0,0,0,0,0,0,0,0,0,0,0,0,0,0,0,0,0,0,0,0,0,0,0,0,0,0,0,0,0,0,0,0,0,0,0,0,0,0,0,0,0,0,0,0,0,0,0,0,0,0,0],"sum_hessian":[4.83E2,2.17E2,2.66E2,9.6E1,1.21E2,1.9E1,2.47E2,8.4E1,1.2E1,3.4E1,8.7E1,1.2E1,7E0,6.2E1,1.85E2,8.2E1,2E0,1.1E1,1E0,3E0,3.1E1,7.5E1,1.2E1,2E0,1E1,1E0,6E0,5E1,1.2E1,1.82E2,3E0,7E0,7.5E1,1E0,2E0,2.7E1,4E0,1.9E1,5.6E1,8E0,4E0,9E0,1E0,4.4E1,6E0,4E0,8E0,1.66E2,1.6E1,1E0,2E0,5E0,2E0,6E0,6.9E1,1E0,2.6E1,3E0,1E0,8E0,1.1E1,2E0,5.4E1,4E0,4E0,1E0,8E0,1.6E1,2.8E1,4E0,2E0,4E0,4E0,1.65E2,1E0,1.4E1,2E0],"tree_param":{"num_deleted":"0","num_feature":"19","num_nodes":"77","size_leaf_vector":"0"}},{"base_weights":[1.5435832E0,1.7958187E0,1.1795901E0,1.8565476E0,2.6139474E-1,8.538329E-1,1.5062726E0,1.92577E0,9.345382E-1,-9.472174E-2,5.4345953E-1,1.0933211E0,4.8046598E-1,1.6734413E0,2.3868553E-1,5.079803E-1,1.9660208E0,1.079148E-1,1.1587431E0,-3.2210836E-1,2.662524E-1,6.7685795E-1,-9.891123E-2,1.1627836E0,1.3998064E-1,5.453779E-1,-3.6285862E-1,-1.4824404E-1,1.7248969E0,9.000635E-1,-3.8746393E-1,7.432796E-1,-2.178619E-1,4.0272528E-1,1.9933882E0,6.885851E-1,-3.7874433E-1,1.19444E0,8.898007E-2,1.1928079E0,-1.14931576E-1,-1.5102129E-1,3.9058617E-1,-1.531265E-1,6.394229E-1,7.692115E-3,-1.9141136E-1,1.7797174E0,3.1540588E-1,-4.489994E-1,3.964201E-2,-1.9773122E-2,4.6900994E-1,5.8329827E-1,2.0211146E0,1.1082476E-1,1.2279911E0,2.3898554E-1,1.2626252E0,8.539183E-4,-1.8179584E-1,-1.9732133E-1,3.405533E-2,7.760755E-1,1.3272426E-2,1.8036515E0,-1.1415456E-2,3.2772455E-2,3.8200548E-1],"categories":[],"categories_nodes":[],"categories_segments":[],"categories_sizes":[],"default_left":[true,true,true,true,true,true,true,true,true,true,true,true,true,true,true,true,true,true,true,false,false,false,false,true,true,true,false,true,true,false,true,false,false,true,true,false,false,true,false,true,false,true,false,true,true,false,false,true,true,false,false,false,false,false,false,false,false,false,false,false,false,false,false,false,false,false,false,false,false],"id":10,"left_children":[1,3,5,7,9,11,13,15,17,19,21,23,25,27,29,31,33,35,37,-1,-1,-1,-1,39,41,43,-1,45,47,-1,49,-1,-1,51,53,-1,-1,55,-1,57,-1,59,-1,61,63,-1,-1,65,67,-1,-1,-1,-1,-1,-1,-1,-1,-1,-1,-1,-1,-1,-1,-1,-1,-1,-1,-1,-1],"loss_changes":[3.468921E1,2.323108E1,1.6551727E1,9.237793E0,1.7324815E0,7.8477783E0,1.889067E1,9.473511E0,4.282198E0,1.1723428E0,1.0628479E0,3.609604E0,3.5991983E0,9.052704E0,8.067397E0,2.7267113E0,6.5250244E0,3.9004972E0,2.966404E-1,0E0,0E0,0E0,0E0,2.890152E0,9.049387E-1,3.6319742E0,0E0,5.2224323E-2,4.0843964E0,0E0,3.7459362E-1,0E0,0E0,3.043784E-1,3.9555054E0,0E0,0E0,1.0145378E-1,0E0,2.6666107E0,0E0,3.906378E-2,0E0,1.0692744E-1,3.7025757E0,0E0,0E0,3.526352E0,8.808613E-2,0E0,0E0,0E0,0E0,0E0,0E0,0E0,0E0,0E0,0E0,0E0,0E0,0E0,0E0,0E0,0E0,0E0,0E0,0E0,0E0],"parents":[2147483647,0,0,1,1,2,2,3,3,4,4,5,5,6,6,7,7,8,8,9,9,10,10,11,11,12,12,13,13,14,14,15,15,16,16,17,17,18,18,23,23,24,24,25,25,27,27,28,28,30,30,33,33,34,34,37,37,39,39,41,41,43,43,44,44,47,47,48,48],"right_children":[2,4,6,8,10,12,14,16,18,20,22,24,26,28,30,32,34,36,38,-1,-1,-1,-1,40,42,44,-1,46,48,-1,50,-1,-1,52,54,-1,-1,56,-1,58,-1,60,-1,62,64,-1,-1,66,68,-1,-1,-1,-1,-1,-1,-1,-1,-1,-1,-1,-1,-1,-1,-1,-1,-1,-1,-1,-1],"split_conditions":[1.09E1,1.51E1,1.59E1,6.25E-2,2.45E1,2.35E1,1.97E1,8.1666666E-1,3.6666667E-1,3.5666666E0,4.5E-1,1.5299999E1,1E-1,6.75E0,2.6E1,3.75E-1,1.8333334E-1,8.3333336E-2,3.65E1,-1.8232716E-2,1.507103E-2,3.831307E-2,-5.5988007E-3,3.1E0,3.1E0,8.1666666E-1,-2.0539356E-2,2.3E1,3.6666667E-1,5.094746E-2,3.5E1,4.2072818E-2,-1.233192E-2,1.7E0,6.525E1,3.8976874E-2,-2.1438556E-2,2.1833334E0,5.0366544E-3,1.9E0,-6.505621E-3,1.65E1,2.2108855E-2,3.1E1,1.6016667E-3,4.3540675E-4,-1.0834705E-2,2.25E-1,1.45E1,-2.5415296E-2,2.2439081E-3,-1.1192437E-3,2.6547978E-2,3.301719E-2,1.1440377E-1,6.2731574E-3,6.950957E-2,1.35276085E-2,7.1470015E-2,4.8335445E-5,-1.0290425E-2,-1.1169234E-2,1.927678E-3,4.3929208E-2,7.512763E-4,1.0209442E-1,-6.461639E-4,1.8550617E-3,2.1623151E-2],"split_indices":[17,18,17,6,0,0,17,5,8,5,4,17,6,18,0,8,9,4,0,0,0,0,0,9,5,9,0,0,10,0,0,0,0,5,1,0,0,5,0,5,0,0,0,0,15,0,0,6,0,0,0,0,0,0,0,0,0,0,0,0,0,0,0,0,0,0,0,0,0],"split_type":[0,0,0,0,0,0,0,0,0,0,0,0,0,0,0,0,0,0,0,0,0,0,0,0,0,0,0,0,0,0,0,0,0,0,0,0,0,0,0,0,0,0,0,0,0,0,0,0,0,0,0,0,0,0,0,0,0,0,0,0,0,0,0,0,0,0,0,0,0],"sum_hessian":[4.68E2,2.67E2,2.01E2,2.56E2,1.1E1,1.08E2,9.3E1,2.34E2,2.2E1,6E0,5E0,6.1E1,4.7E1,8.1E1,1.2E1,8E0,2.26E2,6E0,1.6E1,4E0,2E0,4E0,1E0,5.6E1,5E0,4.5E1,2E0,2E0,7.9E1,5E0,7E0,6E0,2E0,5E0,2.21E2,2E0,4E0,1.5E1,1E0,5.5E1,1E0,3E0,2E0,5E0,4E1,1E0,1E0,7.5E1,4E0,6E0,1E0,1E0,4E0,6E0,2.15E2,1E0,1.4E1,5E0,5E1,1E0,2E0,4E0,1E0,3.2E1,8E0,7.4E1,1E0,2E0,2E0],"tree_param":{"num_deleted":"0","num_feature":"19","num_nodes":"69","size_leaf_vector":"0"}},{"base_weights":[1.4620234E0,1.673108E0,1.1584759E0,1.7315757E0,3.055543E-1,1.3685751E0,6.750361E-1,1.5013341E0,2.1787767E0,-9.0460084E-2,5.816536E-1,1.0960258E0,2.0134435E0,-3.7694465E-2,9.2035884E-1,1.5349666E0,-2.2076589E-1,-2.0258535E-1,2.2201715E0,-3.130378E-1,2.6126233E-1,7.039017E-1,-9.7800456E-2,2.3396878E-1,1.14609E0,2.04631E0,1.5839109E-1,2.935905E-1,-4.7797954E-1,4.5873183E-1,1.3266469E0,1.6101294E0,5.521875E-1,4.6042304E-2,-3.696055E-1,1.0260361E0,2.4380615E0,5.2161974E-1,-2.2446978E-1,1.2527874E0,4.9837875E-1,4.122405E-2,5.5235505E-1,-5.4830664E-1,3.919682E-2,-2.529902E-1,6.7131144E-1,-4.158878E-3,1.381685E0,1.8064057E0,1.1302763E0,-1.6992158E-1,8.6041677E-1,8.249766E-2,-2.1256663E-2,1.131783E0,1.9193831E-1,3.8956624E-2,5.634779E-1,-2.6739588E-1,8.443398E-4,1.4349664E0,7.3128706E-1,8.252227E-1,-2.0313226E-2,2.2512934E-1,-1.5959537E-1,7.0976906E-2,-4.3611073E-1,9.273377E-1,1.460443E-1,1.424144E0,6.554804E-2],"categories":[],"categories_nodes":[],"categories_segments":[],"categories_sizes":[],"default_left":[true,true,true,true,true,true,true,true,true,true,true,true,true,true,true,true,true,false,true,false,false,false,false,true,true,false,false,true,true,true,true,true,true,true,false,true,false,true,true,true,true,true,false,false,false,true,true,false,true,false,false,false,false,false,false,false,false,false,false,false,false,false,false,false,false,false,false,false,false,false,false,false,false],"id":11,"left_children":[1,3,5,7,9,11,13,15,17,19,21,23,25,27,29,31,33,-1,35,-1,-1,-1,-1,37,39,-1,-1,41,43,45,47,49,51,53,-1,55,-1,57,59,61,63,65,-1,-1,-1,67,69,-1,71,-1,-1,-1,-1,-1,-1,-1,-1,-1,-1,-1,-1,-1,-1,-1,-1,-1,-1,-1,-1,-1,-1,-1,-1],"loss_changes":[2.2519958E1,1.9471802E1,1.7335632E1,1.3343018E1,1.9814498E0,1.5777679E1,1.2588493E1,1.2068695E1,9.67038E0,1.1180445E0,1.1306498E0,3.5372162E0,8.813782E-1,3.787434E0,7.4344597E0,9.714783E0,3.5823277E-1,0E0,1.0092255E1,0E0,0E0,0E0,0E0,1.9380642E0,4.406601E0,0E0,0E0,8.720465E-1,5.0395274E-1,5.3953247E0,1.9726486E0,7.2991333E0,4.849743E0,2.377673E-2,0E0,7.61261E-1,0E0,5.5338144E-2,7.715312E-2,3.678299E0,3.659338E0,5.9184575E-1,0E0,0E0,0E0,7.318727E-1,2.7874794E0,0E0,9.7660065E-1,0E0,0E0,0E0,0E0,0E0,0E0,0E0,0E0,0E0,0E0,0E0,0E0,0E0,0E0,0E0,0E0,0E0,0E0,0E0,0E0,0E0,0E0,0E0,0E0],"parents":[2147483647,0,0,1,1,2,2,3,3,4,4,5,5,6,6,7,7,8,8,9,9,10,10,11,11,12,12,13,13,14,14,15,15,16,16,18,18,23,23,24,24,27,27,28,28,29,29,30,30,31,31,32,32,33,33,35,35,37,37,38,38,39,39,40,40,41,41,45,45,46,46,48,48],"right_children":[2,4,6,8,10,12,14,16,18,20,22,24,26,28,30,32,34,-1,36,-1,-1,-1,-1,38,40,-1,-1,42,44,46,48,50,52,54,-1,56,-1,58,60,62,64,66,-1,-1,-1,68,70,-1,72,-1,-1,-1,-1,-1,-1,-1,-1,-1,-1,-1,-1,-1,-1,-1,-1,-1,-1,-1,-1,-1,-1,-1,-1],"split_conditions":[1.09E1,1.51E1,2.65E1,1.4142857E0,2.45E1,1.77E1,2.225E0,8.3333336E-2,5.5E0,3.5666666E0,4.5E-1,1.9E0,4.7923336E-3,1.61E1,1.6E1,8.3333336E-2,4.166667E-1,-1.1467202E-2,9.700001E0,-1.7719286E-2,1.478857E-2,3.984386E-2,-5.5359257E-3,1.25E1,1.9E0,1.1582994E-1,8.965616E-3,1.8333334E-1,3.55E1,2.85E1,1.4483333E0,5.5E-1,4.166667E-1,2.25E1,-2.092126E-2,2.5E1,1.3800475E-1,8E0,1.3E0,3.2916665E0,1E-1,8.3333336E-2,3.126567E-2,-3.1036511E-2,2.2187084E-3,2.6666668E-1,3.45E1,-2.3541035E-4,3.65E1,1.0225032E-1,6.397849E-2,-9.618292E-3,4.8703287E-2,4.6697217E-3,-1.2032185E-3,6.406378E-2,1.0864533E-2,2.2051123E-3,3.189527E-2,-1.5135756E-2,4.779326E-5,8.122527E-2,4.1393988E-2,4.6711147E-2,-1.1498159E-3,1.2743288E-2,-9.033783E-3,4.017598E-3,-2.468574E-2,5.24913E-2,8.266735E-3,8.061267E-2,3.7103007E-3],"split_indices":[17,18,0,9,0,17,5,12,0,5,4,5,15,17,17,6,4,0,18,0,0,0,0,0,9,0,0,4,0,0,16,8,8,0,0,0,0,0,9,5,4,8,0,0,0,8,0,0,0,0,0,0,0,0,0,0,0,0,0,0,0,0,0,0,0,0,0,0,0,0,0,0,0],"split_type":[0,0,0,0,0,0,0,0,0,0,0,0,0,0,0,0,0,0,0,0,0,0,0,0,0,0,0,0,0,0,0,0,0,0,0,0,0,0,0,0,0,0,0,0,0,0,0,0,0,0,0,0,0,0,0,0,0,0,0,0,0,0,0,0,0,0,0,0,0,0,0,0,0],"sum_hessian":[4.71E2,2.67E2,2.04E2,2.55E2,1.2E1,1.37E2,6.7E1,1.8E2,7.5E1,6E0,6E0,1.04E2,3.3E1,1.8E1,4.9E1,1.77E2,3E0,1E0,7.4E1,4E0,2E0,5E0,1E0,7E0,9.7E1,3.2E1,1E0,1.1E1,7E0,2.7E1,2.2E1,1.62E2,1.5E1,2E0,1E0,1.5E1,5.9E1,4E0,3E0,8E1,1.7E1,8E0,3E0,6E0,1E0,6E0,2.1E1,1E0,2.1E1,1.07E2,5.5E1,5E0,1E1,1E0,1E0,1.2E1,3E0,1E0,3E0,2E0,1E0,5.4E1,2.6E1,9E0,8E0,4E0,4E0,3E0,3E0,1.2E1,9E0,2E1,1E0],"tree_param":{"num_deleted":"0","num_feature":"19","num_nodes":"73","size_leaf_vector":"0"}},{"base_weights":[1.3886904E0,1.594417E0,1.097743E0,1.393097E0,2.0118515E0,5.319768E-1,1.250937E0,1.7598497E0,6.777173E-1,9.652546E-1,-1.3362055E-1,1.0288807E0,1.7558608E0,2.114942E0,1.3799124E0,3.7594378E-1,1.0580963E0,-4.6478935E-2,1.160408E0,-4.5741653E-1,3.4004584E-1,1.1191149E0,4.088433E-1,1.8155582E0,1.6082644E-1,2.2192893E0,7.1997356E-1,5.1202536E-1,1.5865526E0,6.9665325E-1,-1.5268873E-1,2.3488325E-1,1.113201E0,2.6498586E-1,-2.2217646E-1,1.6376048E-1,1.212367E0,-5.028495E-1,3.875663E-2,3.7383717E-1,-4.8783977E-4,1.1903006E0,2.457561E-1,9.322246E-2,7.455062E-1,1.8510919E0,6.481194E-2,-4.1121677E-3,2.0291016E-1,-1.1431918E-2,8.093679E-1,6.6115904E-1,-2.7081245E-1,4.3736634E-1,1.8849542E0,9.6631837E-1,4.3361735E-2,-5.535029E-1,2.6235387E-1,1.1389873E0,8.157121E-2,-2.6238438E-1,-2.8295504E-2,-9.983391E-2,-5.672256E-1,4.129878E-1,1.2608945E0,-1.3550158E-1,4.7838706E-1,3.1295872E-1,-5.1951114E-2,1.9383109E0,5.1529497E-1],"categories":[],"categories_nodes":[],"categories_segments":[],"categories_sizes":[],"default_left":[true,true,true,true,false,true,true,true,true,true,true,true,true,true,true,true,true,true,true,true,true,true,true,true,true,false,true,true,true,true,true,false,true,false,true,false,false,true,false,false,false,true,true,true,false,true,false,false,false,false,false,false,false,false,false,false,false,false,false,false,false,false,false,false,false,false,false,false,false,false,false,false,false],"id":12,"left_children":[1,3,5,7,-1,9,11,13,15,17,19,21,23,25,27,29,31,33,35,37,39,41,43,45,47,-1,49,51,53,55,57,-1,59,-1,61,-1,-1,63,-1,-1,-1,65,67,69,-1,71,-1,-1,-1,-1,-1,-1,-1,-1,-1,-1,-1,-1,-1,-1,-1,-1,-1,-1,-1,-1,-1,-1,-1,-1,-1,-1,-1],"loss_changes":[2.1459412E1,1.1349548E1,1.5548019E1,4.65412E1,0E0,1.5554396E1,1.0895966E1,5.2409363E0,6.7331467E0,6.578125E0,4.3191476E0,4.988556E0,2.9533234E0,1.90271E0,9.752716E0,8.421518E0,2.6506424E-1,7.3128724E-1,5.5604935E-1,4.5452E-1,1.5069818E-1,5.3046417E0,2.03553E0,2.0720673E0,5.137536E-2,0E0,7.182493E-1,3.0750303E0,1.6158295E1,5.0920553E0,4.095794E0,0E0,3.06633E-1,0E0,2.3797542E-2,0E0,0E0,1.4102674E-1,0E0,0E0,0E0,3.1149292E0,1.4289708E0,5.853557E-1,0E0,6.709442E-1,0E0,0E0,0E0,0E0,0E0,0E0,0E0,0E0,0E0,0E0,0E0,0E0,0E0,0E0,0E0,0E0,0E0,0E0,0E0,0E0,0E0,0E0,0E0,0E0,0E0,0E0,0E0],"parents":[2147483647,0,0,1,1,2,2,3,3,5,5,6,6,7,7,8,8,9,9,10,10,11,11,12,12,13,13,14,14,15,15,16,16,17,17,18,18,19,19,20,20,21,21,22,22,23,23,24,24,26,26,27,27,28,28,29,29,30,30,32,32,34,34,37,37,41,41,42,42,43,43,45,45],"right_children":[2,4,6,8,-1,10,12,14,16,18,20,22,24,26,28,30,32,34,36,38,40,42,44,46,48,-1,50,52,54,56,58,-1,60,-1,62,-1,-1,64,-1,-1,-1,66,68,70,-1,72,-1,-1,-1,-1,-1,-1,-1,-1,-1,-1,-1,-1,-1,-1,-1,-1,-1,-1,-1,-1,-1,-1,-1,-1,-1,-1,-1],"split_conditions":[1.09E1,1.183325E0,2.225E0,2.05E1,1.1387944E-1,2.65E1,1.73E1,2.55E0,5.9E0,8.55E1,8.3333336E-2,3.25E1,8.3333336E-2,3.98E-4,7E0,4.5E0,6.6816664E-1,6.19E1,1.2799999E1,3.55E1,2.3691666E0,2.1E0,1.7054999E0,3.65E1,3.15E1,1.256213E-1,1.7E0,1E-1,4.3E0,4.1428572E-1,5.3E0,1.3295401E-2,1.25E0,1.4999338E-2,1.3E0,9.269547E-3,6.862518E-2,2.85E1,2.1937918E-3,2.116079E-2,-2.7613827E-5,7.99E1,3E0,1.2125001E0,4.2198855E-2,1E-1,3.668634E-3,-2.3276635E-4,1.1485587E-2,-6.470957E-4,4.58137E-2,3.742444E-2,-1.5329149E-2,2.4756813E-2,1.0669651E-1,5.469777E-2,2.4544604E-3,-3.133064E-2,1.4850356E-2,6.447157E-2,4.617281E-3,-1.4852083E-2,-1.6016471E-3,-5.6510284E-3,-3.2107405E-2,2.3376884E-2,7.137205E-2,-7.6699713E-3,2.7078763E-2,1.7714808E-2,-2.9406562E-3,1.0971672E-1,2.916791E-2],"split_indices":[17,16,5,0,0,0,17,5,17,1,10,0,12,15,0,17,16,1,17,0,16,9,16,0,0,0,5,10,17,4,17,0,9,0,9,0,0,0,0,0,0,1,5,16,0,6,0,0,0,0,0,0,0,0,0,0,0,0,0,0,0,0,0,0,0,0,0,0,0,0,0,0,0],"split_type":[0,0,0,0,0,0,0,0,0,0,0,0,0,0,0,0,0,0,0,0,0,0,0,0,0,0,0,0,0,0,0,0,0,0,0,0,0,0,0,0,0,0,0,0,0,0,0,0,0,0,0,0,0,0,0,0,0,0,0,0,0,0,0,0,0,0,0,0,0,0,0,0,0],"sum_hessian":[4.74E2,2.67E2,2.07E2,1.92E2,7.5E1,4.8E1,1.59E2,1.23E2,6.9E1,2.8E1,2E1,1.19E2,4E1,5.4E1,6.9E1,4.3E1,2.6E1,5E0,2.3E1,1.2E1,8E0,1.01E2,1.8E1,3.8E1,2E0,4.8E1,6E0,1.6E1,5.3E1,2.6E1,1.7E1,3E0,2.3E1,1E0,4E0,2E0,2.1E1,1.1E1,1E0,7E0,1E0,9.2E1,9E0,1.2E1,6E0,3.7E1,1E0,1E0,1E0,1E0,5E0,1.4E1,2E0,1.3E1,4E1,1.7E1,9E0,8E0,9E0,2.2E1,1E0,2E0,2E0,3E0,8E0,1E1,8.2E1,4E0,5E0,3E0,9E0,3.3E1,4E0],"tree_param":{"num_deleted":"0","num_feature":"19","num_nodes":"73","size_leaf_vector":"0"}},{"base_weights":[1.3280623E0,1.5282428E0,1.0520668E0,1.5816518E0,2.655546E-1,7.6183766E-1,1.301493E0,1.3822663E0,1.9747605E0,-1.01208575E-1,5.2849907E-1,8.1865656E-1,-2.4173087E-1,6.6004515E-1,1.5463896E0,1.7401607E0,6.784863E-1,1.979543E-1,1.9868879E0,-3.1347227E-1,2.4397437E-1,6.407896E-1,-9.0486236E-2,1.0608469E0,4.4913146E-1,4.1932438E-2,-3.507184E-1,1.0655826E0,-2.4433088E-1,1.5909204E0,1.7996076E-1,1.2232119E0,1.9874874E0,2.9046738E-1,1.0316927E0,1.02489576E-1,1.1384182E0,5.3332627E-1,-3.3069205E-2,4.7982506E-2,1.1832333E0,3.6179343E-1,-4.5173275E-1,1.6145372E0,-2.5219163E-2,2.5151065E-1,-0E0,1.2992984E0,1.6904953E-1,2.0911021E0,6.094205E-1,6.289522E-1,-5.76934E-1,1.0854948E0,4.224551E-2,-1.781146E-1,2.8876132E-1,1.3286071E0,4.8529857E-1,8.105185E-1,2.1313766E-1,8.550605E-2,-1.2408079E-1,2.1423814E-1,-1.1778435E-1,1.2302101E0,1.3948242E-2,-5.0783163E-1,3.8321387E-2,-1.0541064E-2,1.6377878E0,-2.377592E-2,2.3633402E-2],"categories":[],"categories_nodes":[],"categories_segments":[],"categories_sizes":[],"default_left":[true,true,true,true,true,true,true,true,true,true,true,true,true,true,true,true,true,false,false,false,false,false,false,true,true,false,false,true,true,true,true,true,true,true,true,true,true,true,true,true,true,false,true,true,false,false,true,false,false,false,false,false,false,false,false,false,false,false,false,false,false,false,false,false,false,false,false,false,false,false,false,false,false],"id":13,"left_children":[1,3,5,7,9,11,13,15,17,19,21,23,25,27,29,31,33,-1,-1,-1,-1,-1,-1,35,37,-1,-1,39,41,43,45,47,49,51,53,55,57,59,61,63,65,-1,67,69,-1,-1,71,-1,-1,-1,-1,-1,-1,-1,-1,-1,-1,-1,-1,-1,-1,-1,-1,-1,-1,-1,-1,-1,-1,-1,-1,-1,-1],"loss_changes":[2.0499146E1,1.6794983E1,1.1787277E1,9.485718E0,1.7760849E0,7.1489105E0,1.3408829E1,4.2519073E1,4.724121E-2,1.0467883E0,9.4896245E-1,7.5188904E0,3.483488E-1,1.5028673E1,3.5377045E0,5.6827087E0,8.347881E0,0E0,0E0,0E0,0E0,0E0,0E0,4.0284576E0,2.0775309E0,0E0,0E0,2.9702873E0,2.553835E0,3.07724E0,9.083405E-2,3.0812836E0,5.62619E0,1.293005E1,1.6455994E0,6.8371916E-1,4.3005447E0,3.0019693E0,1.6319114E-1,2.989341E-1,1.2131615E0,0E0,4.514799E-1,2.9170532E0,0E0,0E0,5.664559E-3,0E0,0E0,0E0,0E0,0E0,0E0,0E0,0E0,0E0,0E0,0E0,0E0,0E0,0E0,0E0,0E0,0E0,0E0,0E0,0E0,0E0,0E0,0E0,0E0,0E0,0E0],"parents":[2147483647,0,0,1,1,2,2,3,3,4,4,5,5,6,6,7,7,8,8,9,9,10,10,11,11,12,12,13,13,14,14,15,15,16,16,23,23,24,24,27,27,28,28,29,29,30,30,31,31,32,32,33,33,34,34,35,35,36,36,37,37,38,38,39,39,40,40,42,42,43,43,46,46],"right_children":[2,4,6,8,10,12,14,16,18,20,22,24,26,28,30,32,34,-1,-1,-1,-1,-1,-1,36,38,-1,-1,40,42,44,46,48,50,52,54,56,58,60,62,64,66,-1,68,70,-1,-1,72,-1,-1,-1,-1,-1,-1,-1,-1,-1,-1,-1,-1,-1,-1,-1,-1,-1,-1,-1,-1,-1,-1,-1,-1,-1,-1],"split_conditions":[1.09E1,1.51E1,1.5700001E1,1.183325E0,2.45E1,1.5299999E1,2.225E0,2.05E1,9E-1,3.5666666E0,8.3333335E-4,2.35E1,1.7E1,2.65E1,1E-1,9.733334E0,5.7E0,1.1205063E-2,1.12466395E-1,-1.7743878E-2,1.3809998E-2,3.6271445E-2,-5.1219095E-3,5.5E0,1.6016667E-3,2.3735561E-3,-1.9852169E-2,8.55E1,1.61E1,2.25E-1,5.5E0,9.633333E0,1E-1,4.5E0,8.3333336E-2,1.26E1,3.45E0,1.50629E0,2.5333333E0,3.18E-4,1.4E1,2.0479063E-2,3.55E1,6.4E0,-1.427513E-3,1.4236583E-2,2.25E-1,7.354587E-2,9.56893E-3,1.1836536E-1,3.4495816E-2,3.5601396E-2,-3.265694E-2,6.1443668E-2,2.3912773E-3,-1.0082051E-2,1.634513E-2,7.520487E-2,2.7469983E-2,4.5878828E-2,1.2064507E-2,4.84001E-3,-7.023506E-3,1.2126799E-2,-6.6671004E-3,6.9635175E-2,7.895304E-4,-2.8745452E-2,2.169155E-3,-5.966695E-4,9.270582E-2,-1.3458192E-3,1.3377521E-3],"split_indices":[17,18,17,16,0,17,5,0,5,5,14,0,0,0,3,18,17,0,0,0,0,0,0,0,15,0,0,1,17,6,0,18,3,17,12,17,5,16,5,14,18,0,0,18,0,0,3,0,0,0,0,0,0,0,0,0,0,0,0,0,0,0,0,0,0,0,0,0,0,0,0,0,0],"split_type":[0,0,0,0,0,0,0,0,0,0,0,0,0,0,0,0,0,0,0,0,0,0,0,0,0,0,0,0,0,0,0,0,0,0,0,0,0,0,0,0,0,0,0,0,0,0,0,0,0,0,0,0,0,0,0,0,0,0,0,0,0,0,0,0,0,0,0,0,0,0,0,0,0],"sum_hessian":[4.86E2,2.71E2,2.15E2,2.59E2,1.2E1,1.07E2,1.08E2,1.84E2,7.5E1,6E0,6E0,1.02E2,5E0,3.4E1,7.4E1,1.18E2,6.6E1,1E0,7.4E1,4E0,2E0,5E0,1E0,5.7E1,4.5E1,2E0,3E0,2.3E1,1.1E1,7.1E1,3E0,4.6E1,7.2E1,3.5E1,3.1E1,5E0,5.2E1,3.8E1,7E0,3E0,2E1,2E0,9E0,7E1,1E0,1E0,2E0,4.2E1,4E0,6.5E1,7E0,2.6E1,9E0,2.9E1,2E0,2E0,3E0,3.7E1,1.5E1,1.7E1,2.1E1,3E0,4E0,1E0,2E0,1.9E1,1E0,8E0,1E0,1E0,6.9E1,1E0,1E0],"tree_param":{"num_deleted":"0","num_feature":"19","num_nodes":"73","size_leaf_vector":"0"}},{"base_weights":[1.2641314E0,1.4467058E0,9.940929E-1,1.4956887E0,3.3140194E-1,6.752297E-1,1.2455287E0,1.296286E0,1.8695807E0,6.669983E-1,1.9456802E-2,7.328851E-1,-2.3566815E-1,6.212639E-1,1.4740198E0,1.327127E0,-2.5388068E-1,-1.0726327E-1,1.9484856E0,-3.2421094E-1,3.9989135E-1,1.3794617E-1,8.1083983E-1,-3.4225914E-1,4.114654E-2,9.026712E-1,2.3568673E-2,1.5152969E0,1.7793977E-1,1.390969E0,4.2291975E-1,4.1453756E-2,-4.1036117E-1,-2.247144E-1,1.1340835E-1,1.061356E0,2.1165411E0,-5.3533312E-2,2.2206125E-1,1.3422632E-1,8.6488163E-1,9.7734976E-1,-1.710312E-1,-3.2563227E-1,6.6118294E-1,1.5375721E0,-2.4935944E-2,2.4868616E-1,-0E0,1.5798643E0,9.4548845E-1,-1.633449E-1,7.0066184E-1,-2.443864E-2,8.0180734E-2,1.1025E0,4.091895E-2,2.1338308E0,1.9761069E-1,2.470896E-1,-2.4237607E-1,-1.4343937E-1,3.7864152E-1,9.164749E-1,6.382946E-2,-9.32753E-2,1.0415006E0,9.789119E-2,-3.9619538E-1,-1.0422692E-2,1.5594612E0,-2.3508903E-2,2.3367992E-2],"categories":[],"categories_nodes":[],"categories_segments":[],"categories_sizes":[],"default_left":[true,true,true,true,true,true,true,true,true,false,true,true,true,true,true,true,true,true,true,false,false,true,true,false,false,true,true,true,true,true,true,true,false,false,false,true,true,true,false,true,true,true,false,true,false,true,false,false,true,false,false,false,false,false,false,false,false,false,false,false,false,false,false,false,false,false,false,false,false,false,false,false,false],"id":14,"left_children":[1,3,5,7,9,11,13,15,17,-1,19,21,23,25,27,29,31,33,35,-1,-1,37,39,-1,-1,41,43,45,47,49,51,53,-1,-1,-1,55,57,59,-1,61,63,65,-1,67,-1,69,-1,-1,71,-1,-1,-1,-1,-1,-1,-1,-1,-1,-1,-1,-1,-1,-1,-1,-1,-1,-1,-1,-1,-1,-1,-1,-1],"loss_changes":[1.8077515E1,1.3294922E1,1.330278E1,1.0095032E1,1.710503E0,6.0195007E0,1.2217255E1,1.0384125E1,1.4009552E1,0E0,2.2310886E0,3.9732628E0,3.3284903E-1,6.1157684E0,3.0873566E0,8.249451E0,4.0537235E-1,2.8884345E-1,2.9085693E0,0E0,0E0,3.1153366E-1,2.5733833E0,0E0,0E0,2.7078304E0,4.4516463E0,2.810028E0,8.880535E-2,8.2803955E0,3.416369E0,2.5034912E-2,0E0,0E0,0E0,6.6615677E-1,3.4976196E-1,6.9828653E-1,0E0,9.7589576E-1,2.917675E0,2.0726204E0,0E0,5.555346E-1,0E0,2.6557007E0,0E0,0E0,5.5380426E-3,0E0,0E0,0E0,0E0,0E0,0E0,0E0,0E0,0E0,0E0,0E0,0E0,0E0,0E0,0E0,0E0,0E0,0E0,0E0,0E0,0E0,0E0,0E0,0E0],"parents":[2147483647,0,0,1,1,2,2,3,3,4,4,5,5,6,6,7,7,8,8,10,10,11,11,12,12,13,13,14,14,15,15,16,16,17,17,18,18,21,21,22,22,25,25,26,26,27,27,28,28,29,29,30,30,31,31,35,35,36,36,37,37,39,39,40,40,41,41,43,43,45,45,48,48],"right_children":[2,4,6,8,10,12,14,16,18,-1,20,22,24,26,28,30,32,34,36,-1,-1,38,40,-1,-1,42,44,46,48,50,52,54,-1,-1,-1,56,58,60,-1,62,64,66,-1,68,-1,70,-1,-1,72,-1,-1,-1,-1,-1,-1,-1,-1,-1,-1,-1,-1,-1,-1,-1,-1,-1,-1,-1,-1,-1,-1,-1,-1],"split_conditions":[1.1700001E1,1.51E1,1.5700001E1,1.4142857E0,2.4166665E0,1.5299999E1,2.225E0,8.3333336E-2,6.975E1,3.775497E-2,8.5E0,2.1833334E0,9.3E0,1.9599998E1,1E-1,8.3333336E-2,8.25E1,6.525E1,9.700001E0,-1.8351732E-2,2.2635568E-2,7.65E1,8.1666666E-1,-1.9373337E-2,2.3290708E-3,3.175E0,1.0716667E1,2.25E-1,3.8999999E0,5.5E-1,4.166667E-1,6.75E1,-2.3228206E-2,-1.2719801E-2,6.4193998E-3,6.25E-2,1.25E-1,4.5E-1,1.256962E-2,1.45E1,1.7250001E-3,9E-1,-9.681101E-3,1.5E0,3.7425794E-2,6.4E0,-1.4114815E-3,1.4076705E-2,2.25E-1,8.9427106E-2,5.351871E-2,-9.246023E-3,3.966047E-2,-1.3833321E-3,4.538574E-3,6.2406234E-2,2.3161883E-3,1.2078399E-1,1.1185614E-2,1.3986332E-2,-1.3719527E-2,-8.119284E-3,2.1432737E-2,5.1876415E-2,3.6130217E-3,-5.2797827E-3,5.895341E-2,5.541062E-3,-2.2426361E-2,-5.899691E-4,8.827221E-2,-1.3307049E-3,1.3227287E-3],"split_indices":[17,18,17,9,5,17,5,12,1,0,17,5,18,17,3,6,1,1,18,0,0,1,9,0,0,9,18,6,5,8,8,1,0,0,0,6,3,9,0,17,14,5,0,5,0,18,0,0,3,0,0,0,0,0,0,0,0,0,0,0,0,0,0,0,0,0,0,0,0,0,0,0,0],"split_type":[0,0,0,0,0,0,0,0,0,0,0,0,0,0,0,0,0,0,0,0,0,0,0,0,0,0,0,0,0,0,0,0,0,0,0,0,0,0,0,0,0,0,0,0,0,0,0,0,0,0,0,0,0,0,0,0,0,0,0,0,0,0,0,0,0,0,0,0,0,0,0,0,0],"sum_hessian":[4.82E2,2.77E2,2.05E2,2.64E2,1.3E1,9.7E1,1.08E2,1.84E2,8E1,4E0,9E0,9.2E1,5E0,3.3E1,7.5E1,1.81E2,3E0,3E0,7.7E1,5E0,4E0,1.2E1,8E1,3E0,2E0,2.1E1,1.2E1,7.2E1,3E0,1.67E2,1.4E1,2E0,1E0,2E0,1E0,1.7E1,6E1,4E0,8E0,7E0,7.3E1,2E1,1E0,9E0,3E0,7.1E1,1E0,1E0,2E0,1.1E2,5.7E1,5E0,9E0,1E0,1E0,1.6E1,1E0,5.9E1,1E0,1E0,3E0,4E0,3E0,6.8E1,5E0,1E0,1.9E1,1E0,8E0,1E0,7E1,1E0,1E0],"tree_param":{"num_deleted":"0","num_feature":"19","num_nodes":"73","size_leaf_vector":"0"}},{"base_weights":[1.1936399E0,1.4036312E0,9.1291106E-1,1.4538128E0,2.5028512E-1,6.5776676E-1,1.1280295E0,1.5180355E0,6.52326E-1,3.600132E-1,-1.6712314E-1,7.0963573E-1,-2.297545E-1,-9.813599E-2,1.1656812E0,5.017622E-1,1.5591142E0,-0E0,8.0743784E-1,-4.068468E-2,6.031924E-1,7.6393956E-1,1.3952902E-1,4.037536E-2,-3.3400393E-1,-1.5477355E-1,4.234036E-2,2.9344717E-1,1.2135979E0,5.438957E-1,7.0114926E-2,1.3040136E0,1.8022972E0,-1.612899E-1,1.3809884E-1,2.9747656E-1,9.7390324E-1,-2.5555116E-1,2.319071E-1,-2.3653E-1,8.077404E-1,-7.68645E-2,3.4343556E-1,6.516207E-1,-2.796647E-1,9.724826E-1,1.5616232E0,-5.0412327E-2,1.4050187E-1,1.4742717E0,5.1366353E-1,1.9714082E0,1.0648197E0,-2.9427862E-1,5.632921E-1,7.4133985E-2,1.0175885E0,-2.5970462E-1,-1.3090452E-2,8.547943E-1,8.111165E-2,-1.5063348E-1,3.667468E-2,8.145448E-1,-9.222781E-2,1.1447237E0,-5.400627E-2,1.628599E0,3.5628295E-1],"categories":[],"categories_nodes":[],"categories_segments":[],"categories_sizes":[],"default_left":[true,true,true,true,true,true,true,true,true,true,false,true,true,true,true,true,true,true,true,true,false,true,true,false,false,false,false,true,true,false,true,true,true,false,false,true,true,false,false,true,true,true,false,true,false,true,true,false,false,false,false,false,false,false,false,false,false,false,false,false,false,false,false,false,false,false,false,false,false],"id":15,"left_children":[1,3,5,7,9,11,13,15,17,19,-1,21,23,25,27,29,31,33,35,37,-1,39,41,-1,-1,-1,-1,43,45,-1,47,49,51,-1,-1,53,55,-1,-1,57,59,61,-1,63,-1,65,67,-1,-1,-1,-1,-1,-1,-1,-1,-1,-1,-1,-1,-1,-1,-1,-1,-1,-1,-1,-1,-1,-1],"loss_changes":[2.3050598E1,1.39331665E1,8.860062E0,9.060486E0,9.83665E-1,5.693077E0,5.66745E0,6.504944E0,2.6364594E0,1.4844631E0,0E0,2.7626915E0,3.180472E-1,8.592899E-2,3.0723267E0,1.0068798E-1,4.183716E0,2.914069E-1,5.767212E-1,7.6967686E-1,0E0,4.910385E0,7.343254E-1,0E0,0E0,0E0,0E0,3.013972E0,2.349228E0,0E0,8.261581E-2,1.3436279E1,4.2763977E0,0E0,0E0,2.4146073E0,2.137146E-1,0E0,0E0,1.4382124E-2,2.8039932E0,1.0989912E-1,0E0,1.30003E0,0E0,1.2843323E1,4.236908E-1,0E0,0E0,0E0,0E0,0E0,0E0,0E0,0E0,0E0,0E0,0E0,0E0,0E0,0E0,0E0,0E0,0E0,0E0,0E0,0E0,0E0,0E0],"parents":[2147483647,0,0,1,1,2,2,3,3,4,4,5,5,6,6,7,7,8,8,9,9,11,11,12,12,13,13,14,14,15,15,16,16,17,17,18,18,19,19,21,21,22,22,27,27,28,28,30,30,31,31,32,32,35,35,36,36,39,39,40,40,41,41,43,43,45,45,46,46],"right_children":[2,4,6,8,10,12,14,16,18,20,-1,22,24,26,28,30,32,34,36,38,-1,40,42,-1,-1,-1,-1,44,46,-1,48,50,52,-1,-1,54,56,-1,-1,58,60,62,-1,64,-1,66,68,-1,-1,-1,-1,-1,-1,-1,-1,-1,-1,-1,-1,-1,-1,-1,-1,-1,-1,-1,-1,-1,-1],"split_conditions":[1.09E1,1.51E1,1.5700001E1,6.25E-2,4.5E-1,1.5299999E1,6.75E0,2.25E-1,9.6E0,1E-1,-9.459888E-3,1.7250001E-3,4.8821E-1,2.257E0,7.63E1,9.166666E-1,6.1E0,3.5E-1,9.648333E-1,9E0,3.414328E-2,6.525E1,8.3333336E-2,2.2854188E-3,-1.8906057E-2,-8.760848E-3,2.3966462E-3,1.45E0,1.1125E1,3.0786835E-2,3E-1,5.5E-1,4.5E-1,-9.129701E-3,7.816987E-3,4.666667E-1,1.0833333E0,-1.4465294E-2,1.3126938E-2,7.941667E-1,1.90913E0,1.3840001E0,1.9439928E-2,5E-1,-1.5830223E-2,1.97E1,1.45E1,-2.8535542E-3,7.95301E-3,8.345011E-2,2.9075563E-2,1.1159018E-1,6.0273368E-2,-1.6657434E-2,3.1884752E-2,4.196302E-3,5.759988E-2,-1.4700397E-2,-7.4097584E-4,4.838503E-2,4.5912676E-3,-8.526502E-3,2.0759443E-3,4.6106733E-2,-5.22049E-3,6.479628E-2,-3.056987E-3,9.2185706E-2,2.0167146E-2],"split_indices":[17,18,17,6,4,17,18,9,18,4,0,15,16,16,1,4,17,8,16,17,0,1,10,0,0,0,0,9,18,0,10,8,4,0,0,8,9,0,0,16,16,16,0,4,0,17,18,0,0,0,0,0,0,0,0,0,0,0,0,0,0,0,0,0,0,0,0,0,0],"split_type":[0,0,0,0,0,0,0,0,0,0,0,0,0,0,0,0,0,0,0,0,0,0,0,0,0,0,0,0,0,0,0,0,0,0,0,0,0,0,0,0,0,0,0,0,0,0,0,0,0,0,0,0,0,0,0,0,0,0,0,0,0,0,0,0,0,0,0,0,0],"sum_hessian":[4.76E2,2.63E2,2.13E2,2.51E2,1.2E1,1.05E2,1.08E2,2.29E2,2.2E1,1E1,2E0,1E2,5E0,3E0,1.05E2,1.1E1,2.18E2,5E0,1.7E1,5E0,5E0,9E1,1E1,2E0,3E0,2E0,1E0,7E0,9.8E1,9E0,2E0,1.19E2,9.9E1,2E0,3E0,7E0,1E1,3E0,2E0,3E0,8.7E1,6E0,4E0,4E0,3E0,6.7E1,3.1E1,1E0,1E0,9.5E1,2.4E1,7.5E1,2.4E1,2E0,5E0,1E0,9E0,2E0,1E0,8.1E1,6E0,3E0,3E0,3E0,1E0,5.7E1,1E1,2.8E1,3E0],"tree_param":{"num_deleted":"0","num_feature":"19","num_nodes":"69","size_leaf_vector":"0"}},{"base_weights":[1.1330351E0,1.0610152E0,1.8412071E0,1.2626176E0,8.198492E-1,1.9458448E0,4.691759E-1,1.4822423E0,1.0389322E0,3.2955757E-1,1.0586988E0,1.58162E-1,1.9796846E0,1.6593194E0,5.907318E-1,7.217224E-2,1.1181036E0,1.3320342E-1,6.2099755E-1,1.5846474E0,6.084549E-1,1.7052001E0,1.5504201E-1,-2.245351E-1,7.072592E-1,3.911674E-1,-3.58637E-1,1.1495643E0,-3.328822E-2,-2.8573963E-1,2.539516E-1,8.444118E-1,-3.8304403E-1,-2.2563278E-3,1.6381695E0,2.8182028E-2,7.692984E-1,4.8428094E-1,1.7572918E0,1.2189168E-1,9.4492024E-1,5.2355045E-1,-1.537702E-1,-3.8857278E-1,-2.327443E-2,1.1647166E0,9.20026E-2,-5.24125E-2,1.025016E-2,1.6623588E-1,-5.633963E-1,5.546174E-1,5.1494718E-2,1.5053493E-1,9.0987545E-1,4.027533E-1,-4.115213E-1,2.6686844E-1,1.690853E0,3.596041E-1,-3.0962798E-1,2.9195893E-1,9.903066E-1],"categories":[],"categories_nodes":[],"categories_segments":[],"categories_sizes":[],"default_left":[true,true,true,true,true,true,false,true,true,true,true,false,false,true,true,true,true,true,true,true,true,true,false,false,true,true,true,true,true,true,true,true,false,true,true,true,true,false,false,false,false,false,false,false,false,false,false,false,false,false,false,false,false,false,false,false,false,false,false,false,false,false,false],"id":16,"left_children":[1,3,5,7,9,11,-1,13,15,17,19,-1,-1,21,23,25,27,29,31,33,35,37,-1,-1,39,41,43,45,47,49,51,53,-1,55,57,59,61,-1,-1,-1,-1,-1,-1,-1,-1,-1,-1,-1,-1,-1,-1,-1,-1,-1,-1,-1,-1,-1,-1,-1,-1,-1,-1],"loss_changes":[1.6093384E1,1.70513E1,1.6988373E0,5.0512085E0,2.3261963E1,7.288208E-1,0E0,1.286882E1,9.437759E0,3.9369507E0,2.9199554E1,0E0,0E0,4.882248E0,2.9402475E0,2.4973264E0,4.464554E0,2.8235903E0,7.8352156E0,5.334305E0,7.5451126E0,1.8379517E0,0E0,0E0,2.5682678E0,1.0608995E0,3.1591415E-2,1.3721161E0,9.32146E-3,2.027041E0,2.3642862E0,5.5161095E-1,0E0,1.6711628E0,2.454605E0,2.918991E0,5.5486145E0,0E0,0E0,0E0,0E0,0E0,0E0,0E0,0E0,0E0,0E0,0E0,0E0,0E0,0E0,0E0,0E0,0E0,0E0,0E0,0E0,0E0,0E0,0E0,0E0,0E0,0E0],"parents":[2147483647,0,0,1,1,2,2,3,3,4,4,5,5,7,7,8,8,9,9,10,10,13,13,14,14,15,15,16,16,17,17,18,18,19,19,20,20,21,21,24,24,25,25,26,26,27,27,28,28,29,29,30,30,31,31,33,33,34,34,35,35,36,36],"right_children":[2,4,6,8,10,12,-1,14,16,18,20,-1,-1,22,24,26,28,30,32,34,36,38,-1,-1,40,42,44,46,48,50,52,54,-1,56,58,60,62,-1,-1,-1,-1,-1,-1,-1,-1,-1,-1,-1,-1,-1,-1,-1,-1,-1,-1,-1,-1,-1,-1,-1,-1,-1,-1],"split_conditions":[2.9250002E-3,2.15E1,3.6666667E-1,2.775E0,1.1886168E0,2.2E0,2.6557371E-2,4.51E-4,3.9E0,8.3333336E-2,1.1E1,8.952648E-3,1.12058654E-1,1E-1,7.35E1,3.25E-1,3.6666667E-1,1.55E0,3.61E-4,2.25E1,2.1833334E0,6.525E1,8.776044E-3,-1.2709651E-2,7.663333E-4,3.6999998E0,1.35E1,1.8287101E0,4.6E0,3.6E0,2.3095238E0,6.191667E-1,-2.1681938E-2,4.166667E-1,4.5E-1,1.79E1,1.4299999E1,2.7412381E-2,9.9470265E-2,6.8995925E-3,5.3486545E-2,2.9635204E-2,-8.704053E-3,-2.1994889E-2,-1.3174327E-3,6.592796E-2,5.2077426E-3,-2.9667725E-3,5.802031E-4,9.409665E-3,-3.189065E-2,3.139373E-2,2.9148222E-3,8.520924E-3,5.150286E-2,2.2797566E-2,-2.3293873E-2,1.51059E-2,9.570954E-2,2.0355137E-2,-1.7526275E-2,1.652613E-2,5.605561E-2],"split_indices":[14,0,10,5,16,17,0,14,17,10,17,0,0,6,1,4,10,5,15,0,5,1,0,0,14,17,0,16,5,17,5,16,0,4,9,17,17,0,0,0,0,0,0,0,0,0,0,0,0,0,0,0,0,0,0,0,0,0,0,0,0,0,0],"split_type":[0,0,0,0,0,0,0,0,0,0,0,0,0,0,0,0,0,0,0,0,0,0,0,0,0,0,0,0,0,0,0,0,0,0,0,0,0,0,0,0,0,0,0,0,0,0,0,0,0,0,0,0,0,0,0,0,0,0,0,0,0,0,0],"sum_hessian":[4.68E2,4.34E2,3.4E1,2.27E2,2.07E2,3E1,4E0,1.03E2,1.24E2,7.1E1,1.36E2,1E0,2.9E1,8.3E1,2E1,1E1,1.14E2,4.6E1,2.5E1,5.8E1,7.8E1,8E1,3E0,2E0,1.8E1,6E0,4E0,1.11E2,3E0,9E0,3.7E1,2.1E1,4E0,2E0,5.6E1,1.8E1,6E1,5E0,7.5E1,7E0,1.1E1,5E0,1E0,3E0,1E0,1.09E2,2E0,2E0,1E0,4E0,5E0,1.2E1,2.5E1,3E0,1.8E1,1E0,1E0,3E0,5.3E1,9E0,9E0,2.2E1,3.8E1],"tree_param":{"num_deleted":"0","num_feature":"19","num_nodes":"63","size_leaf_vector":"0"}},{"base_weights":[1.0765958E0,5.512012E-1,1.1480311E0,2.2063993E-1,9.5450264E-1,1.3072045E0,9.451878E-1,3.990612E-1,-3.4047258E-1,1.335366E0,-0E0,1.4685867E0,9.377318E-1,4.454924E-1,1.110578E0,7.916717E-2,9.2789286E-1,-4.9813896E-1,2.7173692E-1,-0E0,1.4053956E0,3.5871136E-1,-2.1546859E-1,1.5326339E0,4.1410467E-1,4.234278E-1,1.1303524E0,4.940327E-1,-2.8170142E-1,1.1787059E0,-1.5107623E-1,3.071618E-1,-3.1958804E-1,1.0365987E0,-4.79521E-2,1.4985851E0,1.9737765E-1,-2.4460007E-1,-2.750538E-2,1.5447785E0,-2.0058066E-2,1.1861844E0,-2.2702532E-1,5.7582896E-2,7.6947254E-1,1.1695021E0,2.5432033E-2,5.300199E-1,-2.746163E-1,1.2057724E0,-1.6398588E-2,-2.7472073E-1,7.248981E-2,4.72219E-1,-2.1738474E-1,-5.5570996E-1,1.291383E-1,1.0884501E0,9.6306875E-2,1.6131024E0,2.059832E-1,-8.867052E-2,4.9644124E-2,1.5513682E0,1.22556895E-1,-3.0666998E-1,3.8971525E-2,-2.4185403E-1,1.843124E-1,9.153433E-1,-3.0930242E-2,6.69862E-2,1.2068024E0,6.3127056E-2,-2.658535E-2,5.727002E-1,-1.8009026E-1,1.2224832E0,2.335557E-2,9.237019E-2,-1.3966565E-1,4.2000547E-2,-3.48152E-1,9.816144E-2,-1.0319007E-2],"categories":[],"categories_nodes":[],"categories_segments":[],"categories_sizes":[],"default_left":[true,true,true,true,true,true,true,true,true,true,true,true,true,true,true,true,true,false,false,false,true,false,true,true,true,true,true,true,false,true,true,true,true,true,false,true,false,false,true,true,false,false,true,true,true,true,true,true,false,true,true,true,true,false,false,false,false,false,false,false,false,false,false,false,false,false,false,false,false,false,false,false,false,false,false,false,false,false,false,false,false,false,false,false,false],"id":17,"left_children":[1,3,5,7,9,11,13,15,17,19,21,23,25,27,29,31,33,-1,-1,-1,35,-1,37,39,41,43,45,47,-1,49,51,53,55,57,-1,59,-1,-1,61,63,-1,-1,65,67,69,71,73,75,-1,77,79,81,83,-1,-1,-1,-1,-1,-1,-1,-1,-1,-1,-1,-1,-1,-1,-1,-1,-1,-1,-1,-1,-1,-1,-1,-1,-1,-1,-1,-1,-1,-1,-1,-1],"loss_changes":[1.5333008E1,7.7840824E0,8.404114E0,4.6594915E0,1.0189169E1,7.6613464E0,1.4320419E1,5.2618637E0,1.7160368E0,1.8713074E0,1.2433835E0,7.3743286E0,5.848854E0,2.546917E0,1.3303665E1,2.6727705E0,1.5083008E0,0E0,0E0,0E0,8.9653015E-1,0E0,1.9477695E-2,2.7747803E0,8.067417E0,3.3455753E0,2.2242126E0,2.0907326E0,0E0,4.6138153E0,3.9183E-1,1.9844893E0,1.4727668E0,7.853222E-2,0E0,1.1242943E0,0E0,0E0,4.7482338E-2,4.6499634E-1,0E0,0E0,2.903639E-1,8.629366E-1,1.7807131E0,1.8156815E0,1.9741703E-2,2.036253E0,0E0,2.5345917E0,1.479654E-1,2.55436E-1,2.1744281E-2,0E0,0E0,0E0,0E0,0E0,0E0,0E0,0E0,0E0,0E0,0E0,0E0,0E0,0E0,0E0,0E0,0E0,0E0,0E0,0E0,0E0,0E0,0E0,0E0,0E0,0E0,0E0,0E0,0E0,0E0,0E0,0E0],"parents":[2147483647,0,0,1,1,2,2,3,3,4,4,5,5,6,6,7,7,8,8,9,9,10,10,11,11,12,12,13,13,14,14,15,15,16,16,20,20,22,22,23,23,24,24,25,25,26,26,27,27,29,29,30,30,31,31,32,32,33,33,35,35,38,38,39,39,42,42,43,43,44,44,45,45,46,46,47,47,49,49,50,50,51,51,52,52],"right_children":[2,4,6,8,10,12,14,16,18,20,22,24,26,28,30,32,34,-1,-1,-1,36,-1,38,40,42,44,46,48,-1,50,52,54,56,58,-1,60,-1,-1,62,64,-1,-1,66,68,70,72,74,76,-1,78,80,82,84,-1,-1,-1,-1,-1,-1,-1,-1,-1,-1,-1,-1,-1,-1,-1,-1,-1,-1,-1,-1,-1,-1,-1,-1,-1,-1,-1,-1,-1,-1,-1,-1],"split_conditions":[8.405E1,5E-6,2.15E1,1.55E0,5.82E-4,5.5E-1,1.1873333E0,1.225E0,3.65E1,2.0319E-1,1E-1,1.45E1,9.55E0,3.65E1,2.45E0,9E-1,7.3875E1,-2.8196806E-2,1.5381477E-2,-0E0,3.15E1,2.0304604E-2,1.2825E-3,4.5E-1,1.1666667E0,1.25E1,2.2666667E0,1.1723332E0,-1.5945511E-2,1.6875E1,2.257E0,1.35E1,2.05E1,3.35E1,-2.714295E-3,1.4883399E0,1.1172423E-2,-1.3845415E-2,2.05E1,1.89147E0,-1.1353727E-3,6.7143135E-2,1E-1,6.7E0,1.85E1,1E-1,8E0,1.8333334E-1,-1.5544462E-2,1.9166667E-2,1.8333334E-1,3.1E1,8.3333336E-2,2.6729623E-2,-1.230491E-2,-3.1455573E-2,7.309783E-3,6.161095E-2,5.451383E-3,9.130853E-2,1.1659535E-2,-5.0191325E-3,2.8100708E-3,8.781411E-2,6.937247E-3,-1.7358838E-2,2.2059558E-3,-1.3689977E-2,1.0432874E-2,5.1812362E-2,-1.7507846E-3,3.7917069E-3,6.83102E-2,3.5732626E-3,-1.504845E-3,3.241729E-2,-1.01938825E-2,6.91978E-2,1.3220255E-3,5.2285497E-3,-7.905676E-3,2.3774114E-3,-1.97069E-2,5.556359E-3,-5.841001E-4],"split_indices":[1,14,0,9,15,8,16,9,0,16,8,18,18,0,9,9,1,0,0,0,0,0,14,10,9,0,9,16,0,18,16,18,0,0,0,16,0,0,0,16,0,0,6,18,0,9,0,6,0,13,8,0,8,0,0,0,0,0,0,0,0,0,0,0,0,0,0,0,0,0,0,0,0,0,0,0,0,0,0,0,0,0,0,0,0],"split_type":[0,0,0,0,0,0,0,0,0,0,0,0,0,0,0,0,0,0,0,0,0,0,0,0,0,0,0,0,0,0,0,0,0,0,0,0,0,0,0,0,0,0,0,0,0,0,0,0,0,0,0,0,0,0,0,0,0,0,0,0,0,0,0,0,0,0,0,0,0,0,0,0,0,0,0,0,0,0,0,0,0,0,0,0,0],"sum_hessian":[4.74E2,6.1E1,4.13E2,3.7E1,2.4E1,2.19E2,1.94E2,2.9E1,8E0,1.6E1,8E0,1.44E2,7.5E1,5.2E1,1.42E2,2.1E1,8E0,7E0,1E0,1E0,1.5E1,2E0,6E0,1.34E2,1E1,2.4E1,5.1E1,5E1,2E0,1.35E2,7E0,1.4E1,7E0,7E0,1E0,1.3E1,2E0,4E0,2E0,1.33E2,1E0,3E0,7E0,1.4E1,1E1,4.9E1,2E0,4.9E1,1E0,1.32E2,3E0,4E0,3E0,1.1E1,3E0,4E0,3E0,6E0,1E0,1.1E1,2E0,1E0,1E0,1.32E2,1E0,5E0,2E0,3E0,1.1E1,8E0,2E0,2E0,4.7E1,1E0,1E0,4.7E1,2E0,1.3E2,2E0,2E0,1E0,1E0,3E0,2E0,1E0],"tree_param":{"num_deleted":"0","num_feature":"19","num_nodes":"85","size_leaf_vector":"0"}},{"base_weights":[1.0143965E0,1.1889483E0,7.845891E-1,1.2329706E0,1.9035587E-1,6.12715E-1,1.1097994E0,1.0592407E0,1.5899426E0,-1.2240214E-1,4.2955622E-1,1.5444061E-1,6.766874E-1,5.1545066E-1,1.3866329E0,1.34627E0,4.6789894E-1,1.4013118E-1,1.6014642E0,-3.0570382E-1,1.9840564E-1,5.230971E-1,-7.648714E-2,-1.9847015E-1,6.453925E-1,7.494438E-1,1.9658203E-1,8.7091374E-1,-3.800431E-1,1.4404929E0,6.1367825E-2,8.2988715E-1,1.5874376E0,9.2593044E-2,7.6907486E-1,1.6778189E0,7.220999E-1,-4.8747465E-1,4.874388E-1,-2.7118897E-1,9.7274965E-1,7.908356E-1,-8.1367485E-2,-1.874587E-1,5.5150837E-1,9.1395694E-1,-8.2681456E-4,-4.4314757E-1,4.4239674E-2,1.4750032E0,-2.8326842E-3,-4.7413595E-2,1.2702064E-1,1.0205905E0,3.31271E-1,1.6783977E0,4.1843218E-1,-1.3919403E-1,4.6499744E-1,-2.2992568E-1,8.888239E-1,8.2724875E-1,4.1843116E-2,-8.0266535E-2,-5.256414E-1,8.2115E-1,-0E0,-1.828968E-1,1.3975158E-1,-2.7444294E-1,-3.9321084E-2,-0E0,5.9906805E-1,1.0036906E0,1.5517229E-1,-3.932089E-2,-4.6686217E-1,1.5611557E0,3.116786E-1],"categories":[],"categories_nodes":[],"categories_segments":[],"categories_sizes":[],"default_left":[true,true,true,true,true,true,true,true,true,true,true,true,true,true,true,true,true,false,true,false,false,false,false,true,true,true,true,true,true,true,true,true,true,true,true,false,true,true,false,false,false,true,true,true,true,true,false,true,false,true,false,false,false,false,false,false,false,false,false,false,false,false,false,false,false,false,false,false,false,false,false,false,false,false,false,false,false,false,false],"id":18,"left_children":[1,3,5,7,9,11,13,15,17,19,21,23,25,27,29,31,33,-1,35,-1,-1,-1,-1,37,39,41,43,45,47,49,51,53,55,57,59,-1,61,63,-1,-1,-1,65,67,69,71,73,-1,75,-1,77,-1,-1,-1,-1,-1,-1,-1,-1,-1,-1,-1,-1,-1,-1,-1,-1,-1,-1,-1,-1,-1,-1,-1,-1,-1,-1,-1,-1,-1],"loss_changes":[1.5506897E1,1.07034E1,9.499115E0,8.869202E0,1.421838E0,4.0390205E0,8.742714E0,2.8467316E1,2.9353333E-1,8.3876467E-1,6.5057766E-1,4.696491E0,4.023018E0,1.0596305E1,2.883232E0,9.677063E0,7.150694E0,0E0,2.8381348E-3,0E0,0E0,0E0,0E0,4.337987E0,4.3999615E0,4.2033844E0,3.569392E0,8.57975E-1,3.8700044E-1,2.2555084E0,6.990585E-2,3.0656204E0,5.3966217E0,3.209789E0,5.157341E0,0E0,7.6633596E-1,2.9223442E-2,0E0,0E0,0E0,2.631256E0,3.0754924E-1,1.2772772E-1,3.5470176E-1,7.6791763E-1,0E0,6.5099E-3,0E0,2.2904358E0,0E0,0E0,0E0,0E0,0E0,0E0,0E0,0E0,0E0,0E0,0E0,0E0,0E0,0E0,0E0,0E0,0E0,0E0,0E0,0E0,0E0,0E0,0E0,0E0,0E0,0E0,0E0,0E0,0E0],"parents":[2147483647,0,0,1,1,2,2,3,3,4,4,5,5,6,6,7,7,8,8,9,9,10,10,11,11,12,12,13,13,14,14,15,15,16,16,18,18,23,23,24,24,25,25,26,26,27,27,28,28,29,29,30,30,31,31,32,32,33,33,34,34,36,36,37,37,41,41,42,42,43,43,44,44,45,45,47,47,49,49],"right_children":[2,4,6,8,10,12,14,16,18,20,22,24,26,28,30,32,34,-1,36,-1,-1,-1,-1,38,40,42,44,46,48,50,52,54,56,58,60,-1,62,64,-1,-1,-1,66,68,70,72,74,-1,76,-1,78,-1,-1,-1,-1,-1,-1,-1,-1,-1,-1,-1,-1,-1,-1,-1,-1,-1,-1,-1,-1,-1,-1,-1,-1,-1,-1,-1,-1,-1],"split_conditions":[1.09E1,1.51E1,1.73E1,1.1848466E0,2.45E1,7.99E1,2.225E0,2.05E1,9E-1,3.5666666E0,7.916666E-1,1E-1,3.25E1,2.65E1,8.3333336E-2,9.733334E0,9.76525E-1,7.932027E-3,6.25E-2,-1.7304149E-2,1.1230611E-2,2.9609542E-2,-4.3295007E-3,3E1,1.085E1,2.25E-1,8.3333336E-2,1.44E1,3.45E1,3.65E1,3.15E1,5.5E-1,1E-1,6.3999996E0,6.525E1,9.497175E-2,3.55E1,6.15E1,2.759113E-2,-1.5350461E-2,5.506181E-2,1.1666667E-2,1.6E1,3.4E0,3.35E1,5.5E-1,-4.6801255E-5,2.75E1,2.5041555E-3,1E-1,-1.603421E-4,-2.6838132E-3,7.189914E-3,5.776981E-2,1.875136E-2,9.500452E-2,2.3685059E-2,-7.87898E-3,2.6320852E-2,-1.3014781E-2,5.0311252E-2,4.6825834E-2,2.3685002E-3,-4.5434306E-3,-2.975356E-2,4.648062E-2,-0E0,-1.0352744E-2,7.91054E-3,-1.553465E-2,-2.2257422E-3,-0E0,3.3909824E-2,5.68132E-2,8.783418E-3,-2.2257313E-3,-2.6426405E-2,8.836812E-2,1.7642347E-2],"split_indices":[17,18,17,16,0,1,5,0,5,5,8,10,0,0,12,18,16,0,6,0,0,0,0,0,18,10,10,18,0,0,0,8,3,17,1,0,0,1,0,0,0,15,0,5,0,8,0,0,0,6,0,0,0,0,0,0,0,0,0,0,0,0,0,0,0,0,0,0,0,0,0,0,0,0,0,0,0,0,0],"split_type":[0,0,0,0,0,0,0,0,0,0,0,0,0,0,0,0,0,0,0,0,0,0,0,0,0,0,0,0,0,0,0,0,0,0,0,0,0,0,0,0,0,0,0,0,0,0,0,0,0,0,0,0,0,0,0,0,0,0,0,0,0,0,0,0,0,0,0,0,0,0,0,0,0,0,0,0,0,0,0],"sum_hessian":[4.78E2,2.62E2,2.16E2,2.5E2,1.2E1,1.49E2,6.7E1,1.79E2,7.1E1,6E0,6E0,2E1,1.29E2,2.5E1,4.2E1,1.17E2,6.2E1,1E0,7E1,4E0,2E0,5E0,1E0,1.3E1,7E0,1.1E2,1.9E1,1.8E1,7E0,4E1,2E0,4.3E1,7.4E1,3E1,3.2E1,6.1E1,9E0,1E1,3E0,2E0,5E0,1.05E2,5E0,1E1,9E0,1.7E1,1E0,6E0,1E0,3.9E1,1E0,1E0,1E0,2.8E1,1.5E1,6.7E1,7E0,2E1,1E1,3E0,2.9E1,7E0,2E0,2E0,8E0,1.01E2,4E0,4E0,1E0,4E0,6E0,1E0,8E0,1.4E1,3E0,1E0,5E0,3.5E1,4E0],"tree_param":{"num_deleted":"0","num_feature":"19","num_nodes":"79","size_leaf_vector":"0"}},{"base_weights":[9.6570784E-1,8.990062E-1,1.6409328E0,1.0812563E0,7.0377654E-1,1.6982594E0,1.9621721E-1,1.32935E0,8.2961184E-1,4.594137E-1,9.82237E-1,1.2398464E-1,1.7280182E0,1.4688346E0,4.8896885E-1,-1.9000331E-2,9.070022E-1,3.88546E-1,1.065468E0,6.114999E-3,1.0535496E0,1.7550454E0,1.5424156E-1,1.5574582E-1,1.5399519E0,6.0195897E-2,6.418144E-1,2.892259E-1,-3.9814955E-1,4.7770643E-1,1.0868248E0,4.8164043E-1,2.5559448E-2,-2.5743556E-1,5.3226614E-1,1.1050699E0,6.617809E-2,3.629721E-1,-1.8490484E-1,1.5742172E0,4.5106888E-2,-1.4814745E-1,2.3833495E-1,1.786629E-1,7.414641E-1,4.268067E-1,-8.231034E-2,8.9930546E-1,2.957547E-1,2.4426173E-1,1.1324462E0,3.1864822E-1,9.6908146E-1,-2.1310987E-1,4.954394E-1,3.9105006E-2,-3.110953E-1,1.2739006E0,5.471203E-1,-3.575869E-1,3.9611518E-1],"categories":[],"categories_nodes":[],"categories_segments":[],"categories_sizes":[],"default_left":[true,true,true,true,true,true,false,true,true,true,true,false,true,true,true,true,true,true,false,true,true,false,false,true,true,true,true,true,false,true,true,true,true,true,false,true,true,false,false,false,false,false,false,false,false,false,false,false,false,false,false,false,false,false,false,false,false,false,false,false,false],"id":19,"left_children":[1,3,5,7,9,11,-1,13,15,17,19,-1,21,23,25,27,29,31,-1,33,35,-1,-1,37,39,41,43,45,-1,47,49,51,53,55,-1,57,59,-1,-1,-1,-1,-1,-1,-1,-1,-1,-1,-1,-1,-1,-1,-1,-1,-1,-1,-1,-1,-1,-1,-1,-1],"loss_changes":[1.5492218E1,1.2670074E1,1.7462463E0,9.340393E0,1.3513702E1,7.661972E-1,0E0,9.3511505E0,8.046028E0,3.782196E0,7.0446014E0,0E0,3.3833313E-1,7.2006226E0,1.2013478E0,2.1094148E0,6.426468E0,4.0249596E0,0E0,2.0929756E0,4.503395E0,0E0,0E0,9.1479266E-1,3.917038E0,5.180579E-1,1.3079405E-1,6.656984E-1,0E0,1.9603596E0,1.724762E0,6.3433037E0,3.691989E0,2.1723211E-1,0E0,5.6100006E0,1.8374721E0,0E0,0E0,0E0,0E0,0E0,0E0,0E0,0E0,0E0,0E0,0E0,0E0,0E0,0E0,0E0,0E0,0E0,0E0,0E0,0E0,0E0,0E0,0E0,0E0],"parents":[2147483647,0,0,1,1,2,2,3,3,4,4,5,5,7,7,8,8,9,9,10,10,12,12,13,13,14,14,15,15,16,16,17,17,19,19,20,20,23,23,24,24,25,25,26,26,27,27,29,29,30,30,31,31,32,32,33,33,35,35,36,36],"right_children":[2,4,6,8,10,12,-1,14,16,18,20,-1,22,24,26,28,30,32,-1,34,36,-1,-1,38,40,42,44,46,-1,48,50,52,54,56,-1,58,60,-1,-1,-1,-1,-1,-1,-1,-1,-1,-1,-1,-1,-1,-1,-1,-1,-1,-1,-1,-1,-1,-1,-1,-1],"split_conditions":[2.9250002E-3,2.05E1,1.81E1,2.775E0,2.775E0,2.2E0,1.1106737E-2,4.2499998E-4,4.1E0,2.4285716E-1,7.875E1,7.018063E-3,1.4299999E1,5.5E0,1.9E0,3.25E-1,9.733334E0,1.6333333E0,6.0310062E-2,3.3666668E0,1.8333334E-1,9.934311E-2,8.730735E-3,2.5E0,1E-1,1.26E1,6.9633336E-4,3.6999998E0,-2.2536974E-2,1.8333334E-1,5.5E0,1.3095238E0,2.45E0,2.2E1,3.012855E-2,4.55E-4,3.1E1,2.054578E-2,-1.0466409E-2,8.9107454E-2,2.5532437E-3,-8.385782E-3,1.3490782E-2,1.01130875E-2,4.197005E-2,2.4159092E-2,-4.659119E-3,5.0904553E-2,1.6740987E-2,1.3826263E-2,6.4101316E-2,1.8036857E-2,5.4854173E-2,-1.2062934E-2,2.8043998E-2,2.2135114E-3,-1.760933E-2,7.210825E-2,3.0969357E-2,-2.0240955E-2,2.2421822E-2],"split_indices":[14,0,17,5,5,17,0,14,17,10,1,0,18,0,5,4,18,9,0,5,6,0,0,5,6,18,14,17,0,4,0,9,5,0,0,14,0,0,0,0,0,0,0,0,0,0,0,0,0,0,0,0,0,0,0,0,0,0,0,0,0],"split_type":[0,0,0,0,0,0,0,0,0,0,0,0,0,0,0,0,0,0,0,0,0,0,0,0,0,0,0,0,0,0,0,0,0,0,0,0,0,0,0,0,0,0,0,0,0,0,0,0,0,0,0,0,0,0,0,0,0,0,0,0,0],"sum_hessian":[4.74E2,4.4E2,3.4E1,2.18E2,2.22E2,3.2E1,2E0,1.01E2,1.17E2,1.24E2,9.8E1,1E0,3.1E1,8.4E1,1.7E1,1E1,1.07E2,1.17E2,7E0,7E0,9.1E1,3E1,1E0,5E0,7.9E1,6E0,1.1E1,6E0,4E0,3.6E1,7.1E1,9.2E1,2.5E1,6E0,1E0,8.6E1,5E0,3E0,2E0,7.7E1,2E0,3E0,3E0,4E0,7E0,4E0,2E0,6E0,3E1,5E0,6.6E1,7.4E1,1.8E1,1.8E1,7E0,1E0,5E0,6.2E1,2.4E1,2E0,3E0],"tree_param":{"num_deleted":"0","num_feature":"19","num_nodes":"61","size_leaf_vector":"0"}},{"base_weights":[9.064883E-1,1.0746607E0,6.616244E-1,9.130557E-1,1.3865489E0,4.61449E-1,1.0001812E0,1.0016174E0,2.4019429E-1,-2.980825E-1,1.4204814E0,5.197573E-1,-7.060736E-2,4.2818406E-1,1.278906E0,1.19033E0,6.107357E-1,-1.6337278E-1,5.4123735E-1,6.721433E-1,1.5916042E0,3.6286378E-1,7.218628E-1,-3.0350766E-1,6.4319536E-2,7.9179585E-1,-3.785681E-1,1.3280966E0,5.1599402E-2,2.0088246E-1,1.2589766E0,-3.4845868E-1,7.9371446E-1,-4.220164E-1,1.3220984E-1,-5.3035654E-4,7.689331E-1,8.5438585E-1,8.9320004E-2,1.6677597E0,1.9090885E-1,1.41392695E-2,7.464993E-1,1.488159E-1,9.4913936E-1,-1.2940669E-1,2.3268057E-1,8.317177E-1,-3.4940545E-3,-4.36689E-1,4.61361E-2,1.3609049E0,-1.7106922E-2,-4.33875E-2,1.112881E-1,4.2077225E-1,-2.9392952E-1,5.826444E-1,1.3835076E0,-5.7364464E-1,7.6037355E-2,8.465296E-1,-1.9590431E-1,-8.357523E-2,-5.291421E-1,2.7087587E-1,-2.1641572E-1,3.3542165E-1,-3.9680526E-1,8.413856E-1,-8.063252E-5,7.886842E-2,8.809621E-1,2.8538606E-1,-1.5366432E-1,1.7398552E0,5.8400404E-1,-1.2401455E-1,3.1115156E-1,5.216063E-1,-2.1086013E-1,-7.273854E-3,1.0274748E0,-1.6405325E-1,5.7159567E-1,1.2944593E0,4.6933985E-1,-1.37902E-1,-6.0582245E-3,3.061001E-1,3.1815495E-2,9.1445863E-1,1.3804768E-1,1.4087778E0,1.1235156E-1],"categories":[],"categories_nodes":[],"categories_segments":[],"categories_sizes":[],"default_left":[true,true,true,true,true,true,true,true,true,false,true,true,true,true,true,true,true,true,true,true,true,true,true,false,true,true,true,true,true,true,true,true,true,true,true,true,true,true,true,true,true,true,true,true,true,true,true,true,false,false,false,true,false,false,false,false,false,false,false,false,false,false,false,false,false,false,false,false,false,false,false,false,false,false,false,false,false,false,false,false,false,false,false,false,false,false,false,false,false,false,false,false,false,false,false],"id":20,"left_children":[1,3,5,7,9,11,13,15,17,-1,19,21,23,25,27,29,31,33,35,37,39,41,43,-1,45,47,49,51,53,55,57,59,61,63,65,67,69,71,73,75,77,79,81,83,85,87,89,91,-1,-1,-1,93,-1,-1,-1,-1,-1,-1,-1,-1,-1,-1,-1,-1,-1,-1,-1,-1,-1,-1,-1,-1,-1,-1,-1,-1,-1,-1,-1,-1,-1,-1,-1,-1,-1,-1,-1,-1,-1,-1,-1,-1,-1,-1,-1],"loss_changes":[1.6841858E1,8.828552E0,1.20540695E1,1.0612396E1,6.7206726E0,4.4134464E0,9.380081E0,9.624359E0,3.775473E0,0E0,6.626587E0,2.841713E0,6.2167144E-1,1.0035922E1,2.520874E0,6.4756317E0,1.2370958E1,1.3841376E0,2.1272063E0,2.1100588E0,5.8079987E0,1.0374592E1,5.9130154E0,0E0,5.827555E-1,7.3682785E-1,3.9054692E-1,2.1229324E0,5.583139E-2,1.813627E0,5.3614807E0,1.437984E0,3.5667305E0,1.3035929E-1,7.23898E-1,1.7431833E0,6.9684315E-1,4.1143417E-2,6.595465E-1,7.491913E-1,4.660956E-1,5.596587E0,7.906227E0,2.9098966E0,3.2970257E0,1.6976297E-3,8.36457E-2,6.6538525E-1,0E0,0E0,0E0,1.9463806E0,0E0,0E0,0E0,0E0,0E0,0E0,0E0,0E0,0E0,0E0,0E0,0E0,0E0,0E0,0E0,0E0,0E0,0E0,0E0,0E0,0E0,0E0,0E0,0E0,0E0,0E0,0E0,0E0,0E0,0E0,0E0,0E0,0E0,0E0,0E0,0E0,0E0,0E0,0E0,0E0,0E0,0E0,0E0],"parents":[2147483647,0,0,1,1,2,2,3,3,4,4,5,5,6,6,7,7,8,8,10,10,11,11,12,12,13,13,14,14,15,15,16,16,17,17,18,18,19,19,20,20,21,21,22,22,24,24,25,25,26,26,27,27,28,28,29,29,30,30,31,31,32,32,33,33,34,34,35,35,36,36,37,37,38,38,39,39,40,40,41,41,42,42,43,43,44,44,45,45,46,46,47,47,51,51],"right_children":[2,4,6,8,10,12,14,16,18,-1,20,22,24,26,28,30,32,34,36,38,40,42,44,-1,46,48,50,52,54,56,58,60,62,64,66,68,70,72,74,76,78,80,82,84,86,88,90,92,-1,-1,-1,94,-1,-1,-1,-1,-1,-1,-1,-1,-1,-1,-1,-1,-1,-1,-1,-1,-1,-1,-1,-1,-1,-1,-1,-1,-1,-1,-1,-1,-1,-1,-1,-1,-1,-1,-1,-1,-1,-1,-1,-1,-1,-1,-1],"split_conditions":[1.19E1,1.4142857E0,1.73E1,1.2678571E0,5.5E0,3.25E1,2.225E0,5.5E-1,1.3666667E0,-1.687275E-2,9.700001E0,1.36604E0,2.9E0,2.65E1,8.3333336E-2,8.1666666E-1,2.1E0,2.35E1,1.35E1,1.9166667E0,1.5166666E1,1.1225E1,8.3333336E-2,-1.7179837E-2,1.5591667E0,1.44E1,3.5E1,3.65E1,3.15E1,3.75E-1,1.9E0,1.675E0,3.55E1,5E-1,1.0200001E1,9E0,1.05E1,3.3333335E0,2.15E1,9E-1,1.65E1,9.5E0,1.35E1,2.94E-4,1.6235E0,1.75E0,3.45E1,5.5E-1,-1.977785E-4,-2.4718473E-2,2.6115014E-3,2.134E-3,-9.683253E-4,-2.4559188E-3,6.2993844E-3,2.3817517E-2,-1.6637674E-2,3.2980178E-2,7.831247E-2,-3.247075E-2,4.304041E-3,4.7917213E-2,-1.1089026E-2,-4.730717E-3,-2.9951716E-2,1.5332738E-2,-1.2250059E-2,1.8986307E-2,-2.2460882E-2,4.762604E-2,-4.564147E-6,4.4642915E-3,4.9866237E-2,1.6154077E-2,-8.698061E-3,9.848328E-2,3.305714E-2,-7.0197564E-3,1.7612515E-2,2.9525159E-2,-1.193559E-2,-4.117314E-4,5.8159485E-2,-9.286119E-3,3.2354772E-2,7.327196E-2,2.656665E-2,-7.805846E-3,-3.4292153E-4,1.732658E-2,1.8008937E-3,5.1762287E-2,7.814092E-3,7.974288E-2,6.359581E-3],"split_indices":[17,9,17,9,0,0,5,8,9,0,18,16,5,0,12,5,5,0,0,9,18,18,4,0,16,18,0,0,0,8,17,5,0,8,17,0,17,18,0,8,0,0,17,15,16,9,0,8,0,0,0,15,0,0,0,0,0,0,0,0,0,0,0,0,0,0,0,0,0,0,0,0,0,0,0,0,0,0,0,0,0,0,0,0,0,0,0,0,0,0,0,0,0,0,0],"split_type":[0,0,0,0,0,0,0,0,0,0,0,0,0,0,0,0,0,0,0,0,0,0,0,0,0,0,0,0,0,0,0,0,0,0,0,0,0,0,0,0,0,0,0,0,0,0,0,0,0,0,0,0,0,0,0,0,0,0,0,0,0,0,0,0,0,0,0,0,0,0,0,0,0,0,0,0,0,0,0,0,0,0,0,0,0,0,0,0,0,0,0,0,0,0,0],"sum_hessian":[4.76E2,2.74E2,2.02E2,1.91E2,8.3E1,1.33E2,6.9E1,1.67E2,2.4E1,1E0,8.2E1,1.2E2,1.3E1,2.6E1,4.3E1,1.07E2,6E1,1.1E1,1.3E1,1.9E1,6.3E1,7.4E1,4.6E1,3E0,1E1,1.8E1,8E0,4.1E1,2E0,8E0,9.9E1,9E0,5.1E1,5E0,6E0,5E0,8E0,1.3E1,6E0,5.9E1,4E0,4.1E1,3.3E1,1.5E1,3.1E1,5E0,5E0,1.7E1,1E0,7E0,1E0,4E1,1E0,1E0,1E0,6E0,2E0,1.9E1,8E1,5E0,4E0,4.9E1,2E0,3E0,2E0,5E0,1E0,3E0,2E0,7E0,1E0,1E0,1.2E1,3E0,3E0,5.3E1,6E0,1E0,3E0,1.1E1,3E1,1E1,2.3E1,1E1,5E0,1.4E1,1.7E1,4E0,1E0,2E0,3E0,1.4E1,3E0,3.8E1,2E0],"tree_param":{"num_deleted":"0","num_feature":"19","num_nodes":"95","size_leaf_vector":"0"}},{"base_weights":[8.5423714E-1,1.0013543E0,6.3919514E-1,9.235821E-1,1.7269284E0,2.595886E-1,7.815898E-1,1.1635964E0,6.587104E-1,1.7847191E0,9.5314175E-2,-3.9462847E-1,4.0123487E-1,1.3398768E0,6.045387E-1,1.2032111E0,-3.8319424E-2,2.9377922E-1,1.0508362E0,1.843471E0,1.1442382E-1,-4.9442947E-1,1.5404545E-1,8.1763107E-1,1.493957E-1,1.5285412E0,4.8155407E-3,1.5752214E-1,7.046462E-1,1.4071845E0,7.391409E-1,-2.275491E-1,1.7148183E-1,-1.8496E-2,5.764333E-1,-3.0014965E-1,1.1165463E0,1.849902E-1,1.889714E0,-8.459794E-2,-5.389784E-1,1.5096323E-1,1.1520185E0,-5.2704614E-1,4.3341446E-1,1.0626906E-1,-9.479896E-2,5.8237576E-1,-2.786176E-1,-1.8442026E-1,7.3180294E-1,3.265774E-1,1.4738194E0,-3.0529323E-1,8.1358385E-1,2.1137917E-1,-3.6718944E-1,6.2896526E-1,-1.262122E-1,7.390999E-2,-4.3967247E-1,1.1754276E0,-0E0,-4.2180814E-2,1.9021828E-1,2.2781168E-1,1.4935207E0,-6.64875E-1,-2.3680072E-2,5.872761E-1,-2.9591858E-2,1.2034843E-1,9.400781E-4,-8.399771E-2,7.1294665E-1,1.14162706E-1,-3.6959708E-1,7.7033055E-1,9.6437134E-2],"categories":[],"categories_nodes":[],"categories_segments":[],"categories_sizes":[],"default_left":[true,true,true,true,true,true,true,true,true,true,false,true,true,true,true,true,true,true,true,true,false,true,false,true,true,false,true,true,true,true,true,false,false,true,true,true,true,false,false,false,false,true,true,true,true,true,false,true,true,false,true,false,false,false,false,false,false,false,false,false,false,false,false,false,false,false,false,false,false,false,false,false,false,false,false,false,false,false,false],"id":21,"left_children":[1,3,5,7,9,11,13,15,17,19,-1,21,23,25,27,29,31,33,35,37,-1,39,-1,41,43,-1,45,47,49,51,53,-1,-1,55,57,59,61,-1,-1,-1,-1,63,65,67,69,71,-1,73,75,-1,77,-1,-1,-1,-1,-1,-1,-1,-1,-1,-1,-1,-1,-1,-1,-1,-1,-1,-1,-1,-1,-1,-1,-1,-1,-1,-1,-1,-1],"loss_changes":[1.2455597E1,9.051514E0,1.0231659E1,1.3251846E1,1.3334732E0,6.3890753E0,1.120208E1,6.413574E0,1.7606411E1,1.1526489E0,0E0,1.0322077E0,5.0389805E0,7.9936714E0,4.8521996E0,7.662674E0,4.785809E-1,6.5953712E0,6.8865585E0,6.111145E-2,0E0,1.6540766E-2,0E0,3.5020857E0,8.228486E0,0E0,1.2231252E-1,5.675345E0,2.8808327E0,3.9796753E0,4.6765213E0,0E0,0E0,3.4476833E0,1.7771387E0,4.5772445E-1,3.957817E0,0E0,0E0,0E0,0E0,1.2065011E-1,2.3728514E0,8.200624E-1,2.1560688E0,4.793383E-3,0E0,1.5698361E0,7.514914E-1,0E0,1.9753761E0,0E0,0E0,0E0,0E0,0E0,0E0,0E0,0E0,0E0,0E0,0E0,0E0,0E0,0E0,0E0,0E0,0E0,0E0,0E0,0E0,0E0,0E0,0E0,0E0,0E0,0E0,0E0,0E0],"parents":[2147483647,0,0,1,1,2,2,3,3,4,4,5,5,6,6,7,7,8,8,9,9,11,11,12,12,13,13,14,14,15,15,16,16,17,17,18,18,19,19,21,21,23,23,24,24,26,26,27,27,28,28,29,29,30,30,33,33,34,34,35,35,36,36,41,41,42,42,43,43,44,44,45,45,47,47,48,48,50,50],"right_children":[2,4,6,8,10,12,14,16,18,20,-1,22,24,26,28,30,32,34,36,38,-1,40,-1,42,44,-1,46,48,50,52,54,-1,-1,56,58,60,62,-1,-1,-1,-1,64,66,68,70,72,-1,74,76,-1,78,-1,-1,-1,-1,-1,-1,-1,-1,-1,-1,-1,-1,-1,-1,-1,-1,-1,-1,-1,-1,-1,-1,-1,-1,-1,-1,-1,-1],"split_conditions":[1.19E1,2.25E-1,1.4299999E1,2.05E1,3.45E1,8.44E1,1.15E1,1.5125E1,1.1913E0,8E-1,5.3951917E-3,2.0068E-2,1.8333334E-1,5.5E-1,2.1833334E0,5.5E-1,3.4E0,5.7E0,2.25E1,6.415E1,6.4768796E-3,6.15E1,8.719634E-3,2.1833334E0,2.916667E-1,8.6522E-2,9E-1,2.65E1,6.75E0,5.5E0,2.1E0,-1.2880257E-2,9.706608E-3,4.5E0,1.48E1,2.15E1,4.208333E0,1.047124E-2,1.0696593E-1,-4.788607E-3,-3.0508492E-2,8E0,8.3333336E-2,1.7E0,1.58635E0,5.5E0,-5.3660283E-3,8.1E1,7E0,-1.0438979E-2,2.241E-3,1.8485684E-2,8.342451E-2,-1.7280908E-2,4.605234E-2,1.1964969E-2,-2.07845E-2,3.5602137E-2,-7.144152E-3,4.183623E-3,-2.4887351E-2,6.653425E-2,-0E0,-2.3876154E-3,1.0767172E-2,1.2895119E-2,8.453969E-2,-3.763478E-2,-1.3403938E-3,3.324235E-2,-1.6750263E-3,6.812238E-3,5.321246E-5,-4.7546313E-3,4.0355843E-2,6.4620995E-3,-2.0920783E-2,4.360402E-2,5.458756E-3],"split_indices":[17,10,17,0,0,1,0,18,16,4,0,15,8,8,5,8,5,17,0,1,0,1,0,5,8,0,9,0,18,0,5,0,0,17,18,0,5,0,0,0,0,0,4,9,16,0,0,1,18,0,15,0,0,0,0,0,0,0,0,0,0,0,0,0,0,0,0,0,0,0,0,0,0,0,0,0,0,0,0],"split_type":[0,0,0,0,0,0,0,0,0,0,0,0,0,0,0,0,0,0,0,0,0,0,0,0,0,0,0,0,0,0,0,0,0,0,0,0,0,0,0,0,0,0,0,0,0,0,0,0,0,0,0,0,0,0,0,0,0,0,0,0,0,0,0,0,0,0,0,0,0,0,0,0,0,0,0,0,0,0,0],"sum_hessian":[4.73E2,2.72E2,2.01E2,2.54E2,1.8E1,5.8E1,1.43E2,1.26E2,1.28E2,1.7E1,1E0,9E0,4.9E1,2.8E1,1.15E2,1.22E2,4E0,7E1,5.8E1,1.6E1,1E0,8E0,1E0,1.5E1,3.4E1,2.4E1,4E0,2.3E1,9.2E1,7.9E1,4.3E1,2E0,2E0,3.5E1,3.5E1,2E0,5.6E1,1E0,1.5E1,2E0,6E0,7E0,8E0,9E0,2.5E1,2E0,2E0,1.1E1,1.2E1,2E0,9E1,6E0,7.3E1,2E0,4.1E1,2.2E1,1.3E1,3.3E1,2E0,1E0,1E0,5.3E1,3E0,1E0,6E0,4E0,4E0,6E0,3E0,1.8E1,7E0,1E0,1E0,2E0,9E0,2E0,1E1,8.4E1,6E0],"tree_param":{"num_deleted":"0","num_feature":"19","num_nodes":"79","size_leaf_vector":"0"}},{"base_weights":[8.2153136E-1,9.4644356E-1,6.3000154E-1,8.002504E-1,1.2237245E0,3.8240847E-1,8.19245E-1,8.748282E-1,1.9402398E-1,1.2873472E0,6.791092E-2,1.0767185E-1,5.7860255E-1,3.9451736E-1,9.687534E-1,1.0298915E0,5.457441E-1,-1.8626866E-1,5.0364125E-1,-2.9840255E-1,1.3205311E0,-2.1417198E-1,2.7529562E-1,-2.7507624E-1,2.64903E-1,1.2561094E0,3.3526608E-1,7.115197E-1,-2.3720175E-1,6.918563E-1,1.4344338E0,4.6176836E-1,1.1365935E0,-5.5505836E-1,6.752775E-1,-4.2089728E-1,9.6904404E-2,-2.4396434E-2,7.5447685E-1,-7.234825E-2,1.3579664E0,-4.273946E-1,1.3893814E-1,5.5947316E-1,-8.42746E-2,1.4783872E0,4.5722504E-3,-3.8701662E-1,6.367214E-1,3.1375166E-2,7.6373047E-1,2.49132E-1,-3.9132473E-1,7.2038937E-1,-3.0581262E-2,1.5902594E0,4.273013E-1,6.38978E-1,4.4204431E-4,1.43942E-1,1.209392E0,-4.991431E-2,-5.890001E-1,7.2821844E-1,-1.3683523E-1,3.2541063E-2,-4.9744603E-1,2.3766978E-1,-2.2718556E-1,3.668732E-1,-3.504317E-1,8.3625114E-1,-7.143086E-3,-1.6368534E-1,7.091937E-2,6.9326156E-1,1.5109601E0,-6.935473E-2,-4.6776095E-1,2.6768082E-1,-1.20655894E-1,6.4882004E-1,-2.0272516E-1,-2.4333404E-1,1.17264934E-1,-6.684755E-1,1.2629639E-1,7.083243E-1,-1.6392583E-1,1.23516075E-1,-7.985214E-2,8.023897E-1,-1.1461292E-2,-4.4492432E-1,4.433592E-2,9.707905E-1,4.5751083E-1,-4.3642055E-2,9.295299E-4,1.6303167E0,1.5017268E-1,4.5846117E-1,2.9005345E-2],"categories":[],"categories_nodes":[],"categories_segments":[],"categories_sizes":[],"default_left":[true,true,true,true,true,true,true,true,true,true,true,true,true,true,true,true,true,true,true,false,true,false,false,true,true,true,true,true,true,true,true,true,true,true,true,true,true,true,true,true,true,true,true,true,true,false,false,true,true,true,true,false,true,true,true,true,true,false,false,false,false,false,false,false,false,false,false,false,false,false,false,false,false,false,false,false,false,false,false,false,false,false,false,false,false,false,false,false,false,false,false,false,false,false,false,false,false,false,false,false,false,false,false],"id":22,"left_children":[1,3,5,7,9,11,13,15,17,19,21,23,25,27,29,31,33,35,37,-1,39,-1,-1,41,43,45,47,49,51,53,55,57,59,61,63,65,67,69,71,73,75,77,79,81,83,-1,-1,85,87,89,91,-1,93,95,97,99,101,-1,-1,-1,-1,-1,-1,-1,-1,-1,-1,-1,-1,-1,-1,-1,-1,-1,-1,-1,-1,-1,-1,-1,-1,-1,-1,-1,-1,-1,-1,-1,-1,-1,-1,-1,-1,-1,-1,-1,-1,-1,-1,-1,-1,-1,-1],"loss_changes":[9.170898E0,7.576538E0,8.257858E0,8.280342E0,6.3000793E0,4.904051E0,5.52874E0,6.6640472E0,3.5726166E0,6.15094E0,7.689527E-1,3.0046349E0,7.3238983E0,7.913732E0,6.246086E0,4.8042984E0,1.079224E1,1.173989E0,2.2212458E0,0E0,4.8704987E0,0E0,0E0,1.1972185E0,3.7063296E0,3.5550575E0,1.1027924E1,7.6808643E-1,1.5256064E0,1.3065014E0,1.2795029E0,2.0264049E0,6.050972E0,1.6687632E-2,3.0020638E0,3.9340687E-1,6.7653155E-1,1.6722095E0,7.370825E-1,1.2878068E-1,4.1452026E0,2.6523829E-2,3.7028348E-1,1.8417287E0,7.295177E-1,0E0,0E0,2.6751466E0,2.4372702E0,1.0309063E-1,7.518139E-1,0E0,3.964548E-1,1.8506775E0,3.9553787E-3,1.701088E-1,4.3571115E-2,0E0,0E0,0E0,0E0,0E0,0E0,0E0,0E0,0E0,0E0,0E0,0E0,0E0,0E0,0E0,0E0,0E0,0E0,0E0,0E0,0E0,0E0,0E0,0E0,0E0,0E0,0E0,0E0,0E0,0E0,0E0,0E0,0E0,0E0,0E0,0E0,0E0,0E0,0E0,0E0,0E0,0E0,0E0,0E0,0E0,0E0],"parents":[2147483647,0,0,1,1,2,2,3,3,4,4,5,5,6,6,7,7,8,8,9,9,10,10,11,11,12,12,13,13,14,14,15,15,16,16,17,17,18,18,20,20,23,23,24,24,25,25,26,26,27,27,28,28,29,29,30,30,31,31,32,32,33,33,34,34,35,35,36,36,37,37,38,38,39,39,40,40,41,41,42,42,43,43,44,44,47,47,48,48,49,49,50,50,52,52,53,53,54,54,55,55,56,56],"right_children":[2,4,6,8,10,12,14,16,18,20,22,24,26,28,30,32,34,36,38,-1,40,-1,-1,42,44,46,48,50,52,54,56,58,60,62,64,66,68,70,72,74,76,78,80,82,84,-1,-1,86,88,90,92,-1,94,96,98,100,102,-1,-1,-1,-1,-1,-1,-1,-1,-1,-1,-1,-1,-1,-1,-1,-1,-1,-1,-1,-1,-1,-1,-1,-1,-1,-1,-1,-1,-1,-1,-1,-1,-1,-1,-1,-1,-1,-1,-1,-1,-1,-1,-1,-1,-1,-1],"split_conditions":[1.19E1,1.4142857E0,1.5700001E1,1.2678571E0,1.5166666E1,2.8166666E0,2.225E0,5.5E-1,1.3666667E0,5.5E0,1.65E1,8.44E1,1.8333334E-1,2.65E1,1.83E1,1.9E0,1.675E0,2.35E1,1.35E1,-1.6890867E-2,6.975E1,-1.2123054E-2,1.5582914E-2,3E-1,2.35E1,3.45E1,3.6666667E-1,8.55E1,1.61E1,3E-1,1.1E0,2.5E1,8.1666666E-1,2.15E1,3.55E1,8.25E1,1.0200001E1,4E0,1.05E1,3.45E1,9.700001E0,1.7E0,2.6E1,2.1E0,8.3333336E-2,8.3683066E-2,2.58809E-4,1.405E0,1.7739999E0,7.65E1,1.4E1,1.4101942E-2,3.55E1,1.45E0,2.25E-1,3E-1,5E-1,3.61689E-2,2.5021607E-5,8.147735E-3,6.845678E-2,-2.8253645E-3,-3.3339936E-2,4.1220292E-2,-7.745462E-3,1.841964E-3,-2.8157583E-2,1.3453131E-2,-1.2859679E-2,2.07666E-2,-1.983594E-2,4.733541E-2,-4.0432933E-4,-9.265293E-3,4.014341E-3,3.9241582E-2,8.552683E-2,-3.9257756E-3,-2.647728E-2,1.5151884E-2,-6.8296418E-3,3.6726E-2,-1.1475115E-2,-1.3773752E-2,6.637699E-3,-3.7838586E-2,7.148918E-3,4.00942E-2,-9.278906E-3,6.9915405E-3,-4.5199743E-3,4.5418702E-2,-6.487584E-4,-2.5184628E-2,2.5096035E-3,5.495091E-2,2.5897078E-2,-2.4703278E-3,5.2615385E-5,9.228293E-2,8.500419E-3,2.5950871E-2,1.6418272E-3],"split_indices":[17,9,17,9,18,5,5,8,9,0,0,1,8,0,17,17,5,0,0,0,1,0,0,10,0,0,8,1,17,10,8,0,5,0,0,1,17,5,17,0,18,5,0,9,10,0,0,16,16,1,18,0,0,9,4,10,4,0,0,0,0,0,0,0,0,0,0,0,0,0,0,0,0,0,0,0,0,0,0,0,0,0,0,0,0,0,0,0,0,0,0,0,0,0,0,0,0,0,0,0,0,0,0],"split_type":[0,0,0,0,0,0,0,0,0,0,0,0,0,0,0,0,0,0,0,0,0,0,0,0,0,0,0,0,0,0,0,0,0,0,0,0,0,0,0,0,0,0,0,0,0,0,0,0,0,0,0,0,0,0,0,0,0,0,0,0,0,0,0,0,0,0,0,0,0,0,0,0,0,0,0,0,0,0,0,0,0,0,0,0,0,0,0,0,0,0,0,0,0,0,0,0,0,0,0,0,0,0,0],"sum_hessian":[4.82E2,2.82E2,2E2,1.95E2,8.7E1,9.2E1,1.08E2,1.72E2,2.3E1,8.2E1,5E0,4.1E1,5.1E1,3.2E1,7.6E1,1.11E2,6.1E1,1.1E1,1.2E1,1E0,8.1E1,2E0,3E0,1.1E1,3E1,9E0,4.2E1,2.1E1,1.1E1,5.4E1,2.2E1,2.1E1,9E1,5E0,5.6E1,5E0,6E0,5E0,7E0,2E0,7.9E1,8E0,3E0,1.5E1,1.5E1,7E0,2E0,1.2E1,3E1,2E0,1.9E1,2E0,9E0,5.2E1,2E0,1.7E1,5E0,1.4E1,7E0,7E0,8.3E1,1E0,4E0,5.3E1,3E0,1E0,4E0,5E0,1E0,2E0,3E0,6E0,1E0,1E0,1E0,1.9E1,6E1,2E0,6E0,2E0,1E0,1.4E1,1E0,8E0,7E0,7E0,5E0,2.8E1,2E0,1E0,1E0,1.8E1,1E0,8E0,1E0,2.1E1,3.1E1,1E0,1E0,1.6E1,1E0,4E0,1E0],"tree_param":{"num_deleted":"0","num_feature":"19","num_nodes":"103","size_leaf_vector":"0"}},{"base_weights":[7.7835196E-1,7.220548E-1,1.3690342E0,2.630544E-1,7.839756E-1,1.4519118E0,3.3670756E-1,-2.5319988E-1,3.7696E-1,9.483275E-1,6.366144E-1,9.5771015E-2,1.4812068E0,-4.7964486E-1,2.1070302E-1,8.5565984E-1,9.42337E-2,8.5626936E-1,1.4907733E0,1.5229219E-1,7.553471E-1,-5.365699E-1,-7.797913E-2,3.5269424E-1,-4.3659538E-2,9.8078376E-1,-2.4719006E-1,-1.5998201E-1,2.6705018E-1,1.1512396E0,5.684795E-1,1.5686245E0,2.560289E-1,2.2556268E-1,-3.9950737E-1,9.9928796E-1,4.3903467E-1,1.18474E0,1.533382E-1,-3.1865668E-1,1.1946719E-1,3.5221374E-1,-1.2428222E-1,1.1872147E0,2.5107178E-1,-1.4486843E-1,6.274385E-1,1.4711018E-1,1.6153703E0,3.9720416E-1,5.082508E-2,5.763035E-1,1.1862538E0,2.0433228E-2,5.296558E-1],"categories":[],"categories_nodes":[],"categories_segments":[],"categories_sizes":[],"default_left":[true,true,true,true,true,true,false,true,true,true,true,false,false,true,true,true,true,true,true,true,true,false,false,false,false,true,false,true,true,true,true,true,false,true,false,true,true,false,false,false,false,false,false,false,false,false,false,false,false,false,false,false,false,false,false],"id":23,"left_children":[1,3,5,7,9,11,-1,13,15,17,19,-1,-1,21,23,25,27,29,31,33,35,-1,-1,-1,-1,37,-1,39,41,43,45,47,-1,49,-1,51,53,-1,-1,-1,-1,-1,-1,-1,-1,-1,-1,-1,-1,-1,-1,-1,-1,-1,-1],"loss_changes":[1.1838715E1,1.1783539E1,1.1391602E0,3.8612494E0,6.958725E0,6.9127655E-1,0E0,1.786427E0,6.417701E0,3.5615387E0,1.204586E1,0E0,0E0,4.1732788E-2,3.2594135E-1,3.4914217E0,1.759242E0,1.0888916E1,2.4796295E-1,2.3010826E0,1.1612656E1,0E0,0E0,0E0,0E0,2.1008835E0,0E0,9.1549903E-1,9.5170414E-1,1.1817627E0,4.12689E0,1.8476105E-1,0E0,1.2556002E0,0E0,4.700081E0,3.0895252E0,0E0,0E0,0E0,0E0,0E0,0E0,0E0,0E0,0E0,0E0,0E0,0E0,0E0,0E0,0E0,0E0,0E0,0E0],"parents":[2147483647,0,0,1,1,2,2,3,3,4,4,5,5,7,7,8,8,9,9,10,10,13,13,14,14,15,15,16,16,17,17,18,18,19,19,20,20,25,25,27,27,28,28,29,29,30,30,31,31,33,33,35,35,36,36],"right_children":[2,4,6,8,10,12,-1,14,16,18,20,-1,-1,22,24,26,28,30,32,34,36,-1,-1,-1,-1,38,-1,40,42,44,46,48,-1,50,-1,52,54,-1,-1,-1,-1,-1,-1,-1,-1,-1,-1,-1,-1,-1,-1,-1,-1,-1,-1],"split_conditions":[2.968E-3,8.405E1,3.6666667E-1,6.525E1,1.85E1,2.2E0,1.9059094E-2,1.8333334E-1,8.3333336E-2,1.83E1,1.0826399E0,5.421051E-3,8.3842665E-2,8.3333336E-2,1.3E1,1E-1,2.25E-1,8.1E0,1E-1,8.3333336E-2,1.35E1,-3.0372161E-2,-4.413954E-3,1.996401E-2,-2.4713173E-3,2.95E1,-1.3992019E-2,2.7E-5,7.8999996E-4,1E-1,8.299999E0,7.5E0,1.4492335E-2,5.3333333E-6,-2.2613833E-2,1.3480749E0,1.4299999E1,6.706137E-2,8.6796E-3,-1.8037338E-2,6.762356E-3,1.9936811E-2,-7.0349076E-3,6.720145E-2,1.4211741E-2,-8.200176E-3,3.5515714E-2,8.327068E-3,9.14369E-2,2.2483462E-2,2.876918E-3,3.2621253E-2,6.714706E-2,1.1566085E-3,2.9980794E-2],"split_indices":[14,1,10,1,0,17,0,4,4,17,16,0,0,4,0,6,4,17,10,6,17,0,0,0,0,0,0,14,15,3,17,0,0,14,0,16,17,0,0,0,0,0,0,0,0,0,0,0,0,0,0,0,0,0,0],"split_type":[0,0,0,0,0,0,0,0,0,0,0,0,0,0,0,0,0,0,0,0,0,0,0,0,0,0,0,0,0,0,0,0,0,0,0,0,0,0,0,0,0,0,0,0,0,0,0,0,0,0,0,0,0,0,0],"sum_hessian":[4.74E2,4.41E2,3.3E1,5.5E1,3.86E2,2.9E1,4E0,9E0,4.6E1,1.72E2,2.14E2,1E0,2.8E1,6E0,3E0,1.4E1,3.2E1,1.56E2,1.6E1,4.4E1,1.7E2,4E0,2E0,1E0,2E0,1.3E1,1E0,1.3E1,1.9E1,7.1E1,8.5E1,1.4E1,2E0,4.1E1,3E0,9.1E1,7.9E1,9E0,4E0,8E0,5E0,1.6E1,3E0,6.7E1,4E0,6E0,7.9E1,1E0,1.3E1,1.8E1,2.3E1,3.3E1,5.8E1,1.5E1,6.4E1],"tree_param":{"num_deleted":"0","num_feature":"19","num_nodes":"55","size_leaf_vector":"0"}},{"base_weights":[7.1720195E-1,8.4642845E-1,5.249019E-1,7.7126825E-1,1.5561824E0,1.4793272E-1,6.727955E-1,3.2409456E-1,8.342743E-1,7.620151E-2,1.6104367E0,-3.6226052E-1,2.6487997E-1,1.0072701E0,4.8427376E-1,6.9594216E-1,4.3583535E-2,8.7244624E-1,7.7588946E-2,1.6630157E0,1.0439007E-1,-4.3805307E-1,1.3524557E-2,-7.2215404E-3,3.9859617E-1,6.6805005E-1,1.5475013E0,5.367398E-1,-1.2282617E-1,-3.400412E-1,8.5820186E-1,-1.4534953E-1,4.67204E-1,9.339989E-1,3.1746626E-1,4.0183374E-1,-1.3550511E-1,1.6554984E-1,1.7049273E0,-7.651765E-2,-4.8045653E-1,-1.2325632E-1,1.4552814E-1,-3.0363894E-1,7.521249E-1,6.7437124E-1,5.4694884E-2,8.133987E-1,-1.261962E-1,1.9747965E-1,6.7428374E-1,